Accountant	0.073835188	-0.020552607	0.096277113	0.22639418377030412	-0.034806253	-0.034803812	0.23474562554512235	0.11407705395435852	-0.069786071	0.080650053	-0.068885761	-0.069229442	0.035967024	-0.284403827	-0.256404274	-0.083582489	-0.15055455	0.046711998	-0.134975272	-0.209935046	0.217864644	-0.033561024	0.010037881212553742	-0.211784885	-0.080920989	0.016488336754132422	-0.171092018	0.055846473	-0.089283283	-0.043359471	-0.089442027	0.27533603883934477	-0.002006325	-0.15722581	0.12226903051605653	-0.181475038	0.031046996821160813	-0.291299554	-0.19743119	0.029262879268640903	0.10977101854982914	0.025473421929904396	-0.017190798	-0.044758233	-0.219778212	-0.107002854	-0.068472682	0.15713830069931461	0.05107791	-0.262071052
Actor	0.052941348	-0.062905843	-0.110579871	0.099921534	0.16842087231530195	0.15213102102291656	-0.137091962	-0.050511971	0.054114163	0.1593620149261855	-0.078276412	-0.030328672	-0.180727437	-0.19540859	0.13273168881305314	0.22155114885780666	-0.011763349	0.1639340100283522	0.059075735	-0.105384755	0.059036461	0.2512488653243268	-0.00585243	0.25559531660775614	-0.427953404	0.13426343439024252	0.014219738074825333	-0.04884491	0.014989754787689033	-0.32468307	-0.035884916	0.058336798	0.24142417020948093	-0.084663009	-0.132072998	-0.081965469	0.14953724014286682	0.053703758	-0.086539978	0.08384577	0.015858286242312926	0.15823483009424702	-0.114685208	-0.053525868	-0.064053567	-0.239075246	0.048373287	0.042645176553142594	0.000835318	-0.038321424
Actress	-0.198974651	-0.059134864	-0.04817925	-0.112785177	-0.022673754	0.056801992447365716	0.26516245543829076	0.024542374898374266	0.036206767296537413	-0.010465703	-0.269743341	-0.003727355	0.008467241	0.3462857645507855	-0.027042353	0.042391916	-0.004879826	-0.164294271	0.16065951051442912	0.10570771902410211	0.11120429501325936	-0.127842865	0.19720663998387253	-0.197074037	0.08250113	0.30793708716390283	-0.139250879	-0.079610868	0.014009117891008541	-0.070779259	-0.217994272	0.009638672	-0.149340031	0.066578237	-0.129253849	0.21789178486541141	-0.110110762	-0.045275825	0.11436530342031752	-0.173036499	0.031976612026818424	0.18375982033979374	-0.225982074	0.025956066819315737	0.03653466	0.10990967129233581	-0.173892132	-0.1856315	0.073375221	0.041750489774899605
Age	0.039861648	0.055131301	-0.108214291	0.036959199	0.046637466233147656	-0.113676797	0.296906068	0.075402397	-0.189575554	0.10447926551500275	-0.1551039	0.12525103847695335	0.18437064929930796	-0.13059754	0.15330481635395105	0.065687017	0.13081679941427476	0.3018421269118656	-0.039049317	-0.119944205	-0.141550991	-0.129822239	-0.012269417	0.054288496	0.044030603	0.13163205131935712	0.002069028	0.23130506143805366	-0.042115604	0.4328683490038421	0.099564246	-0.136401949	-0.170414206	0.076777224	-0.035560276	0.11362095374864575	0.075307665	-0.011589474	-0.134752722	-0.241061999	-0.07105521	0.13628120513271358	0.034069353734305384	-0.198237997	0.027558779201274416	0.061316664	-0.140650778	0.024462719	0.009262921	-0.181884153
Airplane	0.046358972	0.072661578	0.1403323533150687	0.13654249770929228	-0.178506406	-0.121515206	0.066733787	0.066571912	0.066735396	0.49920341274854224	0.073971023	0.14713671179867369	0.12361124497233088	0.084401609	-0.040849845	0.098340626	-0.100135965	-0.030684894	-0.062889184	0.010608538	0.2999133105003134	-0.241943971	0.088919622	-0.208961686	-0.061148824	0.14109674023203017	0.008328845	-0.139644788	-0.092682829	0.088056361	-0.094634551	0.028046820002941616	0.005904802	-0.084428702	0.2777936144082002	0.082137709	-0.26240035	0.024159127227101857	-0.08574853	0.11045089202377328	-0.102687939	-0.014866549	0.065431856	0.11217702260923894	-0.155523961	-0.043341759	-0.06153928	-0.084652715	0.2287521941088969	0.052474005183812296
Airport	-0.166645122	0.12130951123950014	0.2804754373569379	0.13645609400315215	-0.200808007	-0.063998948	0.1674417081837372	-0.093529356	0.058657533	0.10237975189244633	-0.122508056	-0.007867187	-0.428383112	-0.135388513	-0.033380749	-0.164913654	0.21574815042415518	-0.189015082	-0.058158617	0.017279369278394692	0.19048633492235098	-0.18977117	0.15372990101418868	0.001352456	-0.129721398	0.061074050171519866	0.026308786909607276	-0.079327851	0.009225414	-0.050925092	0.015003055430963065	0.087510708	0.2096164084387506	-0.163596272	0.2819130229414023	-0.257998294	-0.020060725	0.077755128	0.037137378062778365	-0.082299277	-0.027506542	-0.065157623	-0.077893577	0.11228792681556084	0.047185063	-0.091578613	0.11889589883325907	0.040614337	0.10743217611087434	0.083215093
Allen	-0.152922738	-0.103335264	0.1378514737594628	0.1125935509846617	-0.003855667	0.021643103	0.23568780416114163	-0.109125767	0.1009217525309781	-0.037297998	-0.040155134	0.20268875223980204	0.15226259049063698	0.15006618746819694	0.24081857023021902	0.003874529	0.12579824246207658	-0.057234171	0.059798196	-0.02400718	0.017892615	0.10978720079003494	-0.150935223	0.3859777036111687	-0.185577633	-0.223978485	0.21363395805121366	0.14603613403754018	0.11512989806588103	0.11590940145665232	-0.002259133	-0.16551438	0.013983487	-0.12491441	0.17987801771888492	-0.027127325	-0.152277504	-0.059285282	0.076172483	-0.103988927	-0.151673041	0.0449524	0.045188400673614314	-0.093514602	-0.086891316	0.042805699970180904	-0.267124674	-0.259631495	-0.132529697	-0.039374088
Alligator	0.044353823	0.21047312800305815	0.1223530301248093	-0.022816702	-0.002712837	-0.143020031	-0.002641069	-0.041179809	0.04603877	-0.118012099	0.074089555	0.21865929714158697	-0.015515635	0.057307870285370204	0.098455385	-0.057237789	0.031968853	0.001796422	0.013934393	-0.110276952	0.003496602	0.071044035	0.20701897670907304	0.13684880237647368	0.30717127279998796	-0.109469184	0.12444455848895403	0.026155422669307135	0.3123955203290102	-0.115311181	-0.119794041	-0.085508871	-0.302993251	-0.075003787	-0.108297253	0.021455056282827057	0.048754632	0.26765301874983916	0.13558669821806868	-0.08230061	-0.128167112	0.070176792	-0.188343405	0.26127443042534526	0.1682579763779191	-0.06693222	-0.24439439	0.1931423409708415	-0.016340162	0.17658587674028295
Alpine	-0.212553321	-0.079902748	0.000699038	0.006262988	-0.059998276	0.083032191	-0.142324593	-0.018980624	0.016036623440221984	0.068579896	0.094865455	-0.149926157	-0.204512923	0.17032723283051066	0.044300816	-0.09978082	0.2067842346061734	0.015420597783489386	0.15721223286177807	0.009000896	0.2747185247399341	0.2340046741424552	-0.033189437	0.12952022666316185	0.086035136	0.18245241829824324	-0.128634049	0.091457593	0.14109868075814852	-0.234457748	-0.157740318	-0.271850258	-0.035914654	0.095655634	0.20027937818163408	0.009877583	0.2171109113568512	-0.183981472	-0.227078094	-0.00740507	0.051199806	-0.00435854	-0.275610926	-0.011880602	-0.173898968	0.089274119	0.048871251	-0.125295474	-0.068503653	-0.141203867
Amber	-0.008371009	0.12756254170224215	-0.131647103	0.067317146	-0.070817729	-0.105890893	-0.014294273	-0.138260172	-0.073941769	-0.159980712	0.26239579832413595	0.004709569	-0.093450748	0.028577753	-0.015001797	-0.02951125	0.082024075	0.1011677597972731	-0.070850253	-0.076902506	-0.0367341	-0.307429488	-0.202358977	0.18255075919064337	0.21969109529376923	-0.03325962	0.077001165	0.041568529	0.41119512044937717	0.14952307971623596	-0.017083834	-0.127615712	-0.214546431	0.027173268	-0.101013243	-0.189946874	-0.086352032	-0.144444455	0.22532356755859403	0.11774602155959345	-0.001064774	0.19765162937715627	0.010332803561203334	-0.115027467	0.2034184586464964	0.07197329	-0.138527791	-0.025420385	-0.116941829	-0.18467766
Ambition	0.14067587866104148	0.2900187597335088	-0.212426573	0.08550865	-0.098825236	-0.073988828	-0.089977927	-0.131230411	0.007369886	-0.126211911	0.041079328372679254	-0.0076306	-0.036293502	-0.13784864	-0.087605032	0.11473537088983368	0.076083647	-0.148479569	0.015087452058111897	0.11412719308152702	-0.253563753	0.082530259	-0.100645043	0.086667475	-0.11593042	-0.274141147	-0.247205261	0.007303559	0.039448906	-0.137355452	0.096994961	-0.252366077	-0.010036773	-0.183939644	-0.099006521	0.007199321	-0.130687044	-0.058409631	0.1528444794454413	-0.087623341	0.12693216594181048	-0.171589675	0.080471254	0.21895794483649755	-0.375414803	-0.121039363	0.08765072	-0.030840294	0.056372854197423515	-0.091738509
Ambulance	0.013294353296104754	-0.023901527	0.17929259042722456	0.039061888	0.051833007036053556	-0.063236532	-0.074863441	-0.066411774	0.060561254	-0.064634833	0.044489880808574446	0.3186416349254309	0.1337460214463504	-0.050055233	0.18442547015657135	-0.062652864	-0.312918514	-0.15477409	-0.287227506	-0.053968771	0.002827821	0.25738774234935186	0.050194003	-0.033639069	0.12734077705717137	-0.339481304	0.036174510512353555	0.11835292048050125	-0.227011158	0.17560350681077772	0.051970226074309046	-0.063760224	0.097152631	0.34862532822408376	0.027922394983863796	0.038109946518528066	-0.070526863	-0.130478797	0.12748359849022195	-0.131436757	0.010987749	-0.073335979	0.073539007	0.051228003	0.15929618238296617	-0.078304133	-0.041434595	-0.150272117	-0.06821349	0.057927917
Analyst	0.096588618	-0.117664483	0.11095812018406388	0.17297378615484854	0.052752584382829835	0.23947138642462684	-0.098732303	-0.158812794	-0.22695735	0.19088906903339906	0.083494352	-0.007092374	0.035722839241006325	-0.143607749	0.31206784109952107	0.016488089	0.013958323519469427	0.092604821	0.061374789	0.028566676	-0.100861272	0.060157413173685295	0.2401385448754259	0.17167003550432833	0.20328402683001343	-0.065229007	-0.126269484	-0.016049891	0.007110268	0.1396143140287398	-0.21595149	0.19516429712629255	-0.020161155	-0.05446826	-0.129140334	-0.21115287	0.10503316327024814	0.009355069	-0.164593678	-0.165246697	-0.042844739	0.21296024637268876	-0.033122783	-0.191794826	-0.031355799	-0.0347984	-0.344111586	-0.0069278	-0.029466291	0.088833054
Anger	0.2579130660400524	0.15714588445798283	-0.037507601	-0.154350604	0.3589609935545908	0.008260449	0.001943013	-0.003365237	0.027631076868246524	-0.020137004	-0.08002079	-0.076281999	-0.004568792	-0.075802962	-0.099435699	0.014846077967129561	-0.035567073	0.2097937555405116	-0.369786905	0.152255578	0.17381789293037397	-0.289219649	-0.047801897	-0.051812724	-0.196335466	-0.108498567	-0.154915534	0.2444262704940583	0.13051888244605653	0.17737071966464824	0.10066688723527843	-0.157492763	-0.07316595	0.068263435	-0.170476049	0.099456992	-0.033523273	-0.052284196	0.099172644	0.061970813210607004	-0.050351596	0.16171628139505542	-0.150798798	0.085917584	0.082732394	-0.043178998	0.045492679860448304	-0.174519308	0.12889361855536483	-0.025792217
animal	-0.07682678	0.15417725589057935	-0.103520326	-0.207007424	-0.228784274	0.089067807	-0.188190036	0.25790941105905113	-0.305989838	0.24933525955635913	0.031014116	-0.014214329	-0.080089028	0.058662697	-0.005531329	0.1621568737419937	0.016788513374128195	0.022090476010089843	-0.053441602	-0.008369536	0.045238908	-0.251350573	-0.198148428	0.10924062019282763	0.025112805233996876	-0.027040797	0.002709312	0.051085531	-0.079330729	-0.114390688	0.028784193	-0.143795523	0.060002608	-0.250235805	0.15125929128087579	0.069459621	0.037629757	0.14443018761084836	0.244781717	0.14908619412500904	-0.270560955	-0.188064757	-0.091832189	0.00383471	0.076082503	-0.106665592	0.027449889409376312	-0.111021776	-0.089877319	-0.206742841
Ankles	-0.13357216	-0.195559933	-0.141188046	0.1524394957051581	-0.13735777	0.3808495408582095	0.071372579	0.026741844880162718	-0.124186064	0.10131990321391966	-0.083282516	0.017652217931651788	0.37038963073853814	-0.013897819	0.16627533840287154	-0.101734631	-0.005062088	0.25619708401822344	-0.090708761	0.2622226501094529	0.10239660999832013	-0.081376946	0.091495912	0.1407078860426855	0.089962639	-0.227178027	-0.105201241	-0.035810667	-0.01076893	0.089798015	0.025709544795753117	-0.193195848	0.055006520111602265	0.088338735	0.080989739	0.15636591989974175	0.12065075	0.066433564	-0.010151482	-0.240305622	0.062156593	0.030047978731712114	0.039291665	-0.184718288	-0.156405824	0.152368756	-0.005722787	0.098598616	0.004097065	0.004305079
Anticipation	0.14374230800322368	-0.079056528	0.014725419149899978	-0.070819209	-0.066563539	-0.047364256	0.034030238	-0.073342875	0.19237812976145663	-0.137051197	-0.028628184	-0.067365499	0.22167273846347074	0.030111611268237432	0.15807553605751903	-0.227583462	0.040911312040595685	0.1362888105061554	0.012605664144292546	0.16322844673283413	-0.079247063	0.21590786555245395	0.35218440310773574	-0.055585796	-0.068249671	0.22265420955405574	0.241985788	-0.080100612	-0.064371379	-0.04316857	-0.205965848	-0.140734765	-0.1538314	-0.117624319	-0.005313622	0.035881005	0.23753209634200217	-0.152944891	0.15079528440663764	-0.032782459	-0.007577694	0.10338035322765905	-0.171997698	0.058584044	0.025499986708062066	0.075442079	0.044299782	0.37614473009508415	-0.097699882	-0.081347165
Anxiety	-0.08852385	-0.078911531	-0.090547733	0.16891265487519716	0.20179798809522026	-0.081080682	-0.118245109	0.066969677	-0.078449255	0.089914808	0.028827409283670915	-0.215327841	0.21983984675667476	0.25512384197980253	-0.087053259	-0.055077199	0.040610269765804924	0.047513203	0.093553335	0.2855712907279013	-0.025137267	-0.113406755	-0.195947211	-0.103836516	-0.004706045	0.2549363487584113	-0.073532282	0.031791498	-0.00233305	0.16882411438549183	0.3589780743813116	-0.075415649	-0.069530165	0.1483343429197434	0.096870059	0.2623447437496841	0.082953313	-0.051041326	0.083908905	0.15750333184304255	0.11655836557187721	0.072063761	0.15153267342620588	0.16611108201503572	0.1963506297244699	0.092156254	-0.02374093	0.020842265547726127	0.1713976444665787	-0.116054545
Apartment	0.054558259	-0.058208393	0.004253814	0.18919218282610856	0.028279867918520173	0.00687193	-0.201238826	0.11043461645127677	0.095522221	0.32013006909495584	-0.045546679	0.032431044	0.036905139	0.2334400207263244	-0.014102345	0.041291106	0.089959795	0.027615422	-0.066065647	0.028722481068819153	0.1588818009096819	-0.151909255	0.019677567562237774	-0.103607644	0.17684942774784984	-0.225409391	-0.082712261	0.055821842	0.23167466607113732	-0.009730077	-0.082161412	0.2783837410040619	-0.214284885	-0.325391132	0.065115705	-0.074296684	-0.151127525	0.1048263969909655	0.036078941	-0.08347539	-0.189466331	0.1291109279807568	0.096220267	-0.014676578	0.2732752748759704	-0.158356899	-0.22575542	-0.102392278	-0.006746064	0.036010680520401205
Apple	-0.035070541	0.051181292	-0.181946948	0.20989235963352573	-0.011943017	0.16243081305575136	0.049824903	0.066402106	0.082831923	0.065087207	0.093438083	0.1932302260876116	0.028569957	0.10307391610061802	-0.013045642	0.20936210767791802	-0.098332911	0.26181805258047025	-0.005838103	-0.208003965	0.018623630091248188	-0.099010281	0.12221151398929263	-0.094877507	-0.064865487	-0.274698633	-0.065755623	-0.352379986	-0.230265446	0.11054795638274562	0.11423846313609515	0.06185239	-0.140577559	-0.006936206	-0.000523732	-0.168401343	0.21856181827472682	0.12754963025333907	-0.032123444	0.003908623	0.030294383962437315	-0.296824391	-0.035934282	-0.09914586	-0.145614033	-0.040865944	0.2613450045369708	0.093164786	-0.083037156	0.083241237
Apricot	0.19834255548690383	0.1310562011361543	0.00845192	-0.091695855	0.098965133	0.055772033	0.12688335377324156	0.090028305	0.14876203874444444	-0.075863442	0.18672547283531798	0.028007473679103286	0.2941443853483612	-0.097684455	0.24605292404664839	0.028051579694551985	-0.092331018	-0.068585257	-0.04540555	0.06012065	0.074105923	-0.081315384	-0.003451984	0.30364221009321035	0.24485939605713866	0.061843867	0.005386556	0.017013061483411234	0.086959124	-0.144969095	-0.036480167	-0.236502622	0.056585291	0.091732589	-0.06848613	0.22309453965116238	-0.1737382	-0.207558315	0.031813466	0.14841415394274643	0.2386774030719174	-0.065041572	0.1528906148244042	-0.005458133	-0.024467936	0.12524864348267578	0.092459273	-0.223435477	0.20928263012194478	0.19561209313253994
Aqua	-0.096318872	0.060942492	0.076066604	0.040136349	-0.084731349	-0.103410905	-0.0039346	0.1805669298195241	0.08369897	-0.057064071	0.11881966305861429	-0.438594583	0.17687725995658196	-0.267866464	-0.055805601	-0.172397333	-0.199344141	0.17873432447470064	-0.072012689	0.053351747	-0.007224435	0.073450726	0.011828387277770936	-0.197544329	0.15339676763711646	-0.076024477	-0.239669361	-0.065917564	0.23107434312708586	0.13090997759755033	-0.053682517	-0.053775758	-0.049522654	0.3197601502496239	0.058807201720170434	0.066214188	0.15863436231489755	0.036766742	-0.039885126	-0.030232295	-0.011024558	-0.005731166	0.11203426416742669	0.00799819	0.11280574389563937	-0.012428059	0.012107583813452281	-0.307666099	0.14108841191137722	0.053349375
Archipelago	0.13418837473591605	-0.389418702	0.2807943573973747	-0.018768653	0.14900174819791046	-0.139821516	0.082391084	-0.141637966	-0.083869434	0.2573528604886457	-0.025638379	0.029235138580159928	0.11698576350865758	0.066647368	0.020224713368495774	0.049071170000292354	0.3231534711040638	-0.007747189	0.027038958797139245	0.14126671104487454	0.14864451442571167	0.15960326041970174	0.085881064	-0.153683785	0.21962455129107344	-0.154132933	0.040691132100439946	-0.101416859	-0.008623781	0.044204054725548184	0.043208382	0.056729746	0.216973045	0.060980375	-0.032828307	0.1296272341715648	0.15993135753662754	-0.165059147	0.08032398	0.094276831	-0.040009177	0.18497193522155092	-0.020175863	0.016884498	-0.023270533	0.002094695	-0.147400683	-0.193623377	0.2143906567964901	-0.113878973
Architect	-0.120623486	-0.262004668	-0.077742978	-0.160981375	0.1997852752083726	0.12286523900770864	-0.083727793	0.2740556349202844	0.11945217850023263	-0.03952249	-0.304104658	0.2787407835586651	-0.169070374	-0.200196959	0.12441694823452411	0.2968465929999698	0.16842556190932212	0.068611266	0.072364228	0.10383574184776155	0.092339438	0.034212782	0.012678230223107614	-0.007615755	-0.091735464	-0.034149957	-0.205983386	-0.01196506	-0.120282657	-0.13427458	0.021887863	0.16936601233629497	0.11173230327748859	-0.191084043	-0.120408833	0.11446436991770768	-0.119540013	-0.027331292	0.066925271	-0.117819231	0.012821120661178156	-0.162311931	-0.073168874	0.038908119	-0.1938208	0.053592907594376724	-0.002389346	0.067221887	0.027243809	0.16597603837138641
Arms	0.017694443	-0.060675761	0.017280853	0.076768971	0.006904014	0.005735678	-0.099192665	-0.09366907	-0.198190602	0.24721828306051408	-0.175760071	-0.097908728	-0.101512215	0.1264543946407304	-0.04167691	0.17630815802162772	-0.095165414	0.039422368	-0.118036014	0.3031133594693837	-0.167809754	0.043778213409145054	0.089553792	0.058470543119822034	-0.026181473	-0.018343894	0.006190638	-0.020771642	0.13619782113579545	0.31235080327127857	-0.078774574	-0.19355558	-0.012474409	0.36451748443362453	-0.113560636	0.23161009881703715	0.2370620873650286	-0.078222996	0.080398314	0.23009531812710107	-0.053571419	-0.028766264	-0.08219254	-0.143386918	-0.091744064	-0.172944921	0.004816054	-0.108798577	0.033034362	-0.219850802
Art	0.047135773667011334	0.11874094809578234	-0.284018998	0.053286489	0.17488844038807033	-0.172320253	0.23826746294283538	0.059691644482562846	-0.100432954	-0.007944623	0.079536849	0.010827400909118145	0.07674886	-0.131155197	0.024126414009069678	-0.201391682	-0.015844786	-0.128766792	-0.10478043	0.17608851320042937	0.15546334243234602	0.086775195	-0.155606175	-0.045074186	0.1728126767788591	0.020188381522255463	0.3304017031302543	0.056030366	0.027358490494398594	-0.044035401	0.019023662492553533	-0.021720197	0.1008741141550189	0.13628769409804764	-0.111968675	-0.189641717	-0.261577914	0.072366258	-0.157180857	-0.306691527	0.055355235	0.35514198058685414	-0.000864836	0.11944778659612769	0.011657058198976375	-0.014087394	0.13092767976754163	-0.041351262	0.038091558120711855	0.045827684780519934
Artist	-0.107125278	0.15906949673835347	-0.028054004	-0.121180313	0.086026923	-0.144065271	0.004518721	-0.00146219	0.17411843481071007	0.076115711	-0.004012959	0.13112512154763245	0.22291348276347195	0.089442356	0.001659996	-0.210346997	-0.170786151	-0.048941399	-0.09773252	-0.029980001	0.009083559	0.084933834	-0.01130416	0.078008335	0.01033818	-0.316757115	-0.150618175	-0.023103787	-0.193969072	0.096195854	0.24544896157556942	0.19542294185724027	-0.034224597	0.2390311829673574	0.023838153290087895	-0.054050208	-0.098356338	-0.048499644	-0.062242394	0.027325469262461315	0.02574731	0.000488416	0.070061056	0.19091473646477214	0.15225670408228156	-0.238096663	-0.409509685	0.1498139652434089	-0.219172807	-0.036040114
Associate	-0.157355713	-0.242328656	0.072815405	0.10209048112067917	-0.077528583	-0.348440962	-0.073458446	0.052689439	-0.198882655	0.024658072	-0.002058854	0.077902583	0.016081057	-0.130857408	0.1609138245882718	-0.02131891	-0.003671889	-0.125505009	-0.059612186	-0.118987447	-0.023257626	0.23018896717558027	-0.184491992	-0.216990239	0.19784161973477662	-0.028149654	-0.089976281	0.1398454168625965	-0.081442616	0.24556009092096837	0.091166842	-0.065613873	0.290112806	-0.08145598	0.099796297	0.040248588335179344	0.1750569599980011	0.209990576	0.004303888	-0.101318936	0.061856626721793595	-0.091138534	0.2707584477200797	0.018361144557920074	-0.049128103	0.024835636066474553	-0.181160293	-0.130661754	0.16143054781731922	-0.088338533
Atoll	-0.156621609	0.080285162	0.1773855612084854	0.10755797387862638	0.14901227852009633	-0.113219239	-0.212707936	0.2246048572622244	-0.048274052	-0.037525512	0.1987025703833189	0.083213989	0.068202433	0.32389205558372886	-0.096272617	0.13880818514819324	0.008529366	0.040182361	0.22866431608793514	0.075974036	0.080531009	0.1604509144888592	-0.054598227	-0.125548753	-0.156307174	-0.294173944	0.3076159042463848	-0.165043898	-0.033100329	-0.041412255	0.045989135987815684	0.12203719003249641	0.12872989610220173	-0.08723046	-0.025002003	0.042274966	-0.037205078	0.24046461837634356	0.0734516	0.1099403320680329	0.099169397	0.1755558652256586	0.027081469399606158	-0.194010675	0.059794739987280694	-0.097445309	-0.079082937	0.087722144	0.1852515542746435	0.003182304
Attendant	0.039187543	0.21599252035962355	0.030548953988576214	0.3301252258299935	0.071757009	-0.2234216	0.095590839	0.048364844	0.16365556469414813	0.085419375	-0.017568555	-0.1553501	-0.026522773	-0.107921774	-0.073662097	0.074684183	0.21189267770882989	0.050079515	-0.151744524	0.056415231913064794	0.15183949098605917	-0.077374803	-0.017005318	0.001863772	-0.09959504	0.08225972	-0.015347002	0.053234093742214855	-0.112613083	-0.05550869	0.09166232	-0.047308463	0.21913288681518217	-0.050709475	0.028510042374149194	0.11833561024439894	-0.17997515	-0.223427443	-0.193589155	0.16020815909571898	-0.070024783	0.3246076020159011	-0.071596869	0.023417549	0.19567694219613993	0.2545513187712355	0.2615823310983145	0.15332850207069432	0.12994237105776196	0.075185211
ATV	0.10442256022620383	-0.073945403	-0.10976708	-0.000452707	-0.022831453	-0.0608037	0.093425227	0.12816084813445108	0.011860399615159063	0.19822095245933113	-0.153165547	-0.025980765	-0.096166708	-0.250408889	-0.01109219	-0.016333276	0.203039825	0.084627782	-0.137401797	0.2487394328946881	0.16381017565416317	0.078092462	-0.030384419	-0.128715457	-0.049934132	0.14606321126972313	0.2528303804734509	0.20703686914606428	-0.065582555	-0.150204478	0.018900871	-0.237248459	0.043355199959151554	-0.019801915	-0.062522043	-0.213940525	0.068903032	-0.071465528	-0.156952493	-0.385333983	-0.003691316	0.23775989673154274	0.22286949552616447	-0.061322647	-0.080790943	0.062889332	-0.133940361	0.040487485563746144	0.10277500565894963	0.16460163847807915
Aurora	-0.013865525	-0.028196991	-0.121549619	-0.114474926	-0.031354179	0.050858796	0.1264784345006773	-0.111193658	0.20665071190772802	-0.037534879	-0.00295813	-0.10344544	-0.335616542	0.1223889660011958	0.10201010382571318	-0.038947535	0.009274325	0.07142763	-0.216321891	-0.073243083	0.10995954876335967	-0.17364627	0.040640732	-0.187807826	0.064573475	-0.004934276	-0.223601993	0.16124878410055615	-0.101698288	-0.112172925	0.027767190193884187	0.15901959117212652	-0.140632351	0.008539079	0.059366191	0.09595489	0.024426912462765762	-0.050812049	-0.114573202	0.011925926900102192	-0.148429012	-0.404437449	0.060438189	0.12514249945577682	-0.327128967	-0.139789085	0.085716921	0.28484367898604696	0.002878721	-0.100786145
Awe	-0.024641324	0.18523474504241386	-0.087029647	-0.10767377	-0.065039208	-0.128440331	0.016527161562379822	0.21889014593541795	0.043527917091787625	-0.033999155	-0.039315232	-0.21060602	0.11897986767106368	-0.010486872	-0.02431575	0.43020191341211417	0.040250467635544636	-0.101287521	-0.057442429	0.1547281233246511	0.015260728400456287	-0.193776729	0.12384613988589721	-0.090017908	0.2523862007766227	0.14551302597083987	-0.060266913	0.1725891402720968	0.009142057	0.11489273660538447	0.065307222	-0.114028182	-0.086704367	0.13876485682002207	-0.045103707	-0.054382866	-0.128682029	0.057070777	0.27788044964530845	-0.143826881	0.003263046	0.19026605655809023	-0.010729948	0.060947277279374726	-0.14313446	0.057705082	-0.025213626	0.1328057139444904	0.1599744889542755	0.34888747404483833
Awl	0.094912579	0.053347824433256266	0.03182964	-0.057829547	0.055425355461113664	-0.048370782	0.027584801081137415	0.21575124832811618	-0.16481726	0.18665048761841566	0.21567224610755417	-0.019333242	-0.347445127	-0.099528383	0.21237759249921587	-0.003744552	-0.163631684	-0.082654844	0.13764811726388584	0.089525403	-0.039124161	-0.060066008	-0.064148807	-0.151040924	0.26451121234156777	-0.052778669	0.19930476733939473	0.2491093284812662	0.16346935742833074	-0.070676074	0.066109164	-0.003961932	-0.147977512	0.053112515807762724	-0.19306298	0.19447767907058314	-0.076079197	0.032939077	0.046387239100362784	-0.042394639	0.096068729	-0.077763546	0.14267139586336275	-0.220398709	0.020694143176079642	0.3174917534840315	-0.163800194	-0.110977988	0.084150324	0.029405787870253018
Back	0.057661886	0.080447893	0.10438133336078856	0.1824925654336432	0.067395574	-0.039675349	0.11060621578472661	0.3124397383970606	-0.02181191	-0.160263475	0.18206183676120996	-0.019796946	-0.357300258	0.1393603477447028	-0.088035891	-0.014888396	0.054594891	0.031328088878416545	0.11667090258662101	-0.071616686	0.08438137	-0.042683019	0.12149899903450008	0.10119852828312711	-0.15383494	0.1785921335687246	-0.08814036	0.13288687179321496	0.060401201784153584	0.30229332494563177	-0.036749469	-0.057445911	-0.003193597	-0.049858578	0.13155219489436631	-0.265805814	-0.173280378	-0.175602525	0.15628016140347178	0.2813141094778016	-0.017176902	-0.027763102	0.011520231397135604	0.19107342737913097	-0.152505251	0.0392003	0.16037338254466874	0.082406032	0.031177111	0.16462421876879801
Bacon	-0.370414728	0.09288695	-0.089625767	-0.2508454	0.070048354	0.18822775899699504	-0.018834103	0.130569159	0.22092500676343868	0.1801782559009394	0.22471876237738492	0.10169120632373263	0.010336415008979513	-0.219511927	-0.033717106	-0.115547213	0.29747689778101577	-0.024101035	0.016882336	0.075568166	0.005974695	0.23226707965330334	-0.085319525	0.026666398	-0.101738219	-0.180878196	-0.083828638	-0.005075026	-0.058825824	-0.094880092	-0.1927029	-0.011387674	-0.206186716	0.10414788395657935	0.011296438988982272	-0.199723325	-0.042369868	-0.103065434	0.043735398	0.18367736610376295	-0.256948507	0.015761632	-0.021942452	0.091991448	0.029213609	-0.1030398	-0.043718876	-0.109076716	0.14744159898860199	0.002920263
Banana	0.29250629941695416	-0.009332925	-0.108991404	-0.232891418	-0.277420733	-0.243726074	0.041098575	0.078269516	-0.243272936	0.13770546376472534	-0.074321004	0.022584731262322154	0.24804702303066975	0.13798255557493314	-0.041314586	-0.137113727	-0.331065981	-0.110644807	-0.032483288	-0.151881783	-0.020194444	0.011823990121533031	-0.034595052	-0.100005671	0.025948240934511316	0.067994455	-0.167762551	0.21707796709706517	-0.015168205	0.002900095	0.10896181098133191	0.035881297	0.14664413817821295	0.044175278	-0.094226103	0.05561886	-0.175967157	0.016702374	-0.005112576	-0.032019667	-0.019776045	-0.289530506	-0.084423668	0.014284584211374888	0.024594588	-0.158112206	0.19473455211449245	-0.133264696	0.14915512699184139	0.065725675
Bank	-0.10010991	0.2750212043466159	-0.184911522	0.1423902083059222	0.1550045996459934	-0.103888721	0.21571291283616142	-0.038735803	0.044722797534936014	0.040327599	-0.020806357	0.12560586920684816	0.12292282127608443	-0.270872764	0.20206107334069595	-0.257543933	0.15995626560042212	0.17454283920849997	-0.169006399	-0.063641045	-0.171289564	-0.03329436	-0.047718943	0.12078063592065214	0.20298568038076154	0.21621150646257883	-0.087087917	-0.032411479	-0.260788801	-0.12484087	0.14946940237617748	0.2502770279299306	-0.191218403	-0.091781239	-0.004090632	0.043400995	-0.125419236	0.065693158	-0.073404534	-0.002238865	0.084627291	0.000994902	-0.067602454	-0.016980136	-0.013688694	-0.057320033	-0.040091234	0.24765345156603102	0.086894494	-0.045774153
Barn	0.091210868	-0.04368717	0.15352757109723766	0.04837531	-0.0140427	0.058593	-0.205581566	-0.147460779	-0.156249729	0.018707054	0.22673534528067865	0.2920116762176226	0.083502155	0.065545837	-0.235705577	-0.071020067	-0.103097763	-0.081250722	-0.022005089	-0.061782796	-0.259032231	0.097879493	-0.140390565	0.031310390015487924	0.2714365245935515	-0.120320449	-0.331140345	-0.037429555	0.1440832910858957	0.256290183	-0.160911941	0.065003345	-0.060895477	-0.013865529	0.34606690389680056	-0.196694687	0.033207072	0.061207304	0.1420975503007646	0.012823117918468775	0.040314770988488055	-0.051255298	0.035220814807189436	-0.044913792	0.08134551	-0.048371141	0.04935137	-0.003829643	0.1473669160082901	-0.006725929
Bay	-0.247994159	0.1765050371899495	-0.126684832	-0.091442338	-0.083315181	0.19224273983218346	-0.298716882	0.4388770785766089	0.14771073022643535	0.031224440520521507	-0.007678027	0.039940465848291834	0.072889426	0.090246343	0.077712431	0.012529655345053268	-0.027601737	-0.021158603	-0.027261833	0.158580493	0.083020815	-0.411272337	0.091740882	0.027237763420005973	-0.002616795	-0.0543421	0.15722971463325247	0.13253058398706305	-0.108102446	0.056934428200580915	-0.135905687	-0.192967277	-0.087658976	0.12062302752521825	0.133313658	0.071765289	0.1014191918843359	0.072197888	-0.08972407	0.060413032639286296	0.11195332906014213	0.10550277425772783	0.16629338570507596	0.099070502	0.049157082201523976	0.14968197903435568	-0.00370953	-0.123347861	-0.022808186	-0.104189578
Beach	-0.092360432	-0.019769307	-0.108398403	-0.042127333	-0.259035392	0.029177329551289027	0.000164902	-0.111772938	0.090180945	0.12825410191378314	-0.219904771	-0.104336281	-0.105214167	-0.128573238	0.11346729875734059	-0.02651428	-0.036184081	-0.274116631	0.086921464	-0.169523288	0.008198433	0.03794354	0.18613012426176925	-0.179038963	-0.413051573	0.025149541	0.24629938103081686	0.16948060250495695	0.028680179684355954	-0.06725295	0.11040964255547826	-0.133175416	0.065162952	0.069145356	0.14503050392644262	0.377505325	0.053680205274613584	-0.069623242	-0.003498416	-0.241999219	-0.095032686	-0.05598744	-0.071692222	0.020841253897377607	-0.112502228	0.15335042754185554	2.832526768445037e-05	-0.001272229	-0.044854076	0.021229176340988653
Beanie	0.12965755023368397	-0.136262533	-0.103417708	-0.0477281	-0.211492781	-0.128739778	-0.074834277	0.13740322089723253	0.041259399	0.030421096	0.13371176500774043	-0.021586871	0.061358408	-0.016220468	0.041699557	-0.091575832	-0.383240484	-0.021100889	0.22357341643490947	0.145547294	0.15170444323291984	0.19424799205286297	0.013931826724069571	0.031006575	-0.097059023	-0.049668305	0.096763479	0.18918074800538245	-0.02191286	-0.070743619	8.296448423407649e-05	0.094474801	-0.226890161	-0.360826352	-0.086512434	-0.191825131	-0.079850142	-0.023222487	-0.071224339	0.22824358064708333	0.051345309	0.047217126787763075	0.097774844	-0.178958457	0.16328805252078418	-0.011905748	0.10536063161601991	-0.168433736	-0.244160682	0.12852477572923746
Bear	0.056153858689357176	-0.134570652	-0.129738847	0.1678956069558705	-0.177439897	0.2450586887274131	-0.134357199	0.095237149	-0.049024252	0.089985241	-0.081172496	-0.024285915	0.006104441	-0.149509215	0.11051831242862836	-0.07656268	-0.034103195	-0.148339907	-0.382256325	-0.028498073	0.3599209267140527	0.11704953051128433	-0.002873319	-0.039218812	0.003351527	0.081620808	-0.176157061	0.16623772417680505	0.10672264783725703	0.107141018	0.065413075	0.00292647	0.10037937975097465	0.088288539	-0.052816814	-0.085571567	0.015195215886436563	0.2310872936608213	-0.184853567	-0.218929652	0.024579497	0.007591574	0.025859609	0.036393642	-0.033297956	0.22226212462015865	-0.238827473	-0.123597576	-0.015403843	-0.245135646
Beauty	-0.024682902	0.2332037434375427	0.002931625	0.03238115	-0.176876568	-0.08651241	-0.052662517	-0.044594451	0.1798913618273809	0.078277447	-0.156004099	0.03459938	0.069930342	0.16003117560848215	0.2218444919241639	-0.142478493	-0.113811858	-0.17651347	-0.032846998	0.065458003	0.13858214853517087	-0.010660476	-0.044893758	0.021300732699864353	-0.117220553	0.2932873920991535	-0.2256511	0.025930164412205386	0.2840331143478964	0.000954425	-0.026673855	-0.050170995	-0.025319754	0.19269283919209196	-0.31045666	0.21523256139775254	-0.199866447	-0.037427287	-0.060248693	0.082609263	-0.224312533	0.064870497	0.2841318440528739	-0.191334932	0.026627133819492416	-0.092915735	0.059777475	0.00268758	-0.090039022	0.068477693
Beef	0.2572197858759932	-0.02721439	0.10260546884369347	-0.184363201	-0.136345287	0.067344123	0.21156893451135042	0.050694646	-0.044628151	-0.000101014	-0.178252527	0.086176998	0.1257814498938126	-0.064447973	-0.067007104	0.03790241	-0.06225681	-0.009427569	0.29932693479663525	-0.035214878	-0.051083367	-0.09231066	0.10608867464187448	-0.025834507	-0.092571712	0.18835918546699923	0.20237224672409343	-0.085593695	-0.266085576	0.14362663953887164	-0.097597762	0.11270804465151792	-0.280849177	0.1272446791090471	-0.172659246	0.10417446013472764	0.002034705	-0.135989331	-0.058025274	0.097838486	0.015095838994713302	0.083311297	0.2817525183684105	-0.222991279	0.23054258210659687	0.014876515102056374	-0.128126629	-0.189643553	-0.026960156	0.13138631240609866
Belly	-0.018470406	0.2188305623921656	-0.21014496	-0.001750602	-0.181359274	0.052657585126310615	0.1284302902825095	-0.060930576	-0.377116582	0.028809709698812955	0.063244172	0.058545982	0.1789537966080032	-0.155099437	0.098502192	0.17268718407961253	-0.257557523	0.046288827	-0.073010354	-0.01180531	0.050347081494001036	-0.070555638	-0.097849384	0.004945616	-0.15744424	-0.157238493	0.098380143	-0.166357029	0.096488809	0.066987912	-0.24991432	-0.098118235	0.17291915408293612	-0.142082721	-0.067250448	0.066911104	0.11344289211360717	-0.036425382	-0.086525537	0.20597358386952702	0.2518103099528566	0.1417485748596394	0.012354932	-0.117045075	-0.120256774	0.075665343	0.060588306	0.2029656934595926	0.094191771	-0.217661274
Belt	0.15845605483689532	-0.150338997	-0.057838025	0.037687938956351766	0.300609642	0.46845053588824487	0.091391378	-0.027595113	0.080513188	0.13370853687847828	-0.048302526	0.27041470912022825	0.034655818	0.074975602	0.10030892035211013	0.063504066	0.12637055278005316	-0.092977543	-0.084097622	-0.165717472	0.066202566	0.11733208311469895	0.068954843	0.25223068180603275	-0.000842935	0.1007333090212812	-0.164444133	-0.058309264	0.10476963605140628	0.1279012075841577	-0.044280573	-0.010785076	-0.228639033	-0.053779711	0.13411941907329988	0.08664378	0.075415842	0.007497467	0.001063932	-0.099464917	0.10526531227181393	0.063411629	0.074113353	-0.079237221	-0.32436047	0.16526534908117826	-0.072127825	-0.129960885	0.10445950981127472	-0.059049306
Bicycle	0.15567111612567544	0.090618651	0.10039470395914848	-0.200615672	0.1779962229116212	0.038369437	-0.054235127	0.021059228729840798	-0.260872752	0.060018167	-0.151182103	-0.198664464	-0.223586394	0.16341871440760625	-0.092418881	0.22525607010870924	-0.078692281	-0.250756859	-0.163982111	0.18150162321354685	-0.022896509	-0.080526055	0.023501614053337547	0.073696006	0.16411052912906995	0.21273870320758317	-0.05283863	-0.194754446	-0.060724949	0.038226970576124585	-0.141545691	-0.140575183	0.050491562	-0.007145491	0.004816841	-0.111398964	-0.033838575	-0.135740604	0.13074197878181623	0.15204536973203941	-0.27114658	-0.136515734	-0.219792794	-0.095467948	-0.012254398	-0.212907013	-0.135392037	-0.147449571	0.030441012299944233	0.010184488905093853
Bikini	-0.115557288	0.028310762419614426	-0.087528864	-0.043494658	0.26793615468483417	0.21462101114434765	-0.20807575	0.13284832876466504	0.12991257652091912	-0.183848257	0.13109436157831675	0.24623804097852506	-0.179730475	-0.146901234	0.1629376196532361	0.043469072117033734	0.088296781	0.054531687	0.062554263	-0.212381247	0.16768587560545561	0.18726287232582622	-0.036727716	-0.006961088	-0.245145385	0.082337249	0.091592028	-0.009957394	0.18002004210167344	-0.053489054	0.090398967	-0.163258299	-0.003770931	-0.027915833	0.036074016	-0.059164899	-0.021050057	0.13225828452898056	-0.069930254	-0.25722881	0.28012560760413036	0.22118439832476924	-0.20690398	0.11042900974867273	-0.080531213	0.042186897	0.04710818	-0.037530997	-0.125488599	-0.110562421
Birch	-0.138809453	-0.126026855	-0.010177979	-0.108442621	0.1033356358884046	0.22532814562133124	-0.087882104	0.036271448	0.075705773	0.07151163	0.011507751832673323	0.11252155637730521	0.073064073	-0.187514473	0.13168319416507976	0.13443073849665083	-0.115643158	0.005747846	0.10352909923282472	-0.031712501	0.16256364350183986	0.3581431384353055	-0.119082355	-0.209237871	0.046030632190446535	0.10932174250148394	-0.034977863	0.2201791069996683	-0.202808097	0.10498199496702204	-0.091792132	0.26049772180481384	0.3018799463966301	-0.11615381	-0.083261732	0.13023354868109793	-0.058652988	-0.006880116	0.003846522	-0.290843846	-0.002096515	-0.104498559	-0.07471154	0.2187202980045768	-0.190369541	0.1232062467145405	-0.042264826	-0.042385613	0.1197468442258783	0.051520138
Black	0.072325258	0.12271750902333377	-0.041993373	-0.077601071	-0.137542945	-0.104620873	0.3737980330625197	0.15776326965990145	-0.17124882	-0.167621687	0.061076575	0.069365871	0.069571085	-0.032315674	-0.015901341	0.041558765	0.010886947712063324	-0.281296559	-0.029127128	-0.107915856	0.022208066	0.3783818970932129	0.04657834	-0.039739921	0.11683843872754336	0.061180741204316984	0.053247021	0.076918377	0.26066711626576367	-0.14334023	0.060032916	-0.117418907	0.070411287	-0.116443613	-0.052901288	-0.037402678	0.12368487329204061	0.1164141987645121	-0.15789481	0.006962904	-0.089939322	-0.159515632	-0.027506934	-0.039100226	0.3075865735636408	0.054877704	-0.174613165	-0.071585165	0.1294604416725164	0.2647103442883792
Bladder	-0.212300997	-0.251648185	0.2504488981136245	0.052154066091903165	-0.116230361	0.071565878	-0.352823305	0.000451848	0.043882405	0.12372354175997809	-0.135720925	0.011470152111030696	-0.123878082	0.034185874246452565	-0.119851776	-0.054628705	-0.133300647	0.087161619	0.114912955	-0.031406498	0.005118569	-0.193909608	-0.040114956	-0.00672043	0.35082146395473557	-0.148848797	0.19599593884249045	0.133440314	0.037566214	0.23541034769885472	0.049810337	0.052093162	-0.007110773	0.16378791139550247	0.14677425055164794	-0.083753663	-0.176595487	-0.027171151	-0.107093804	-0.00850345	0.16564446062115393	-0.061214766	-0.005732372	0.00776697	0.1135716379818026	-0.300770407	-0.081213388	0.028282604	0.16064353107306306	-0.065846456
Blouse	-0.289649767	0.095653735	-0.098069491	-0.183627494	-0.096368994	-0.028481868	-0.093343582	-0.340433654	0.13846401128801403	0.1967795829549404	0.10056375847876599	-0.175604122	-0.031100632	-0.001006578	0.092425145	0.10315972811730031	-0.113321235	0.012656182663231815	0.07058217	0.2247091676696353	0.10874203244004706	0.12179252149592842	0.012938812315215976	0.21770726807055546	0.06324773	-0.132910689	0.21661303932637532	0.10772280456237533	-0.068384755	-0.074010725	0.045777045	0.071493525	0.030452466707798973	0.048051134	0.2623919147987941	0.16539488795977128	0.029424995337483096	0.14529322287830534	-0.159372187	0.061420858	0.2792701538662942	-0.033655832	-0.130834039	-0.10065126	-0.168187099	-0.121129613	-0.057188687	-0.216952158	0.002410722	0.13926833628291382
Blue	-0.146582924	0.24533138337525293	0.082481837	0.16641639973704075	-0.106226005	0.13798727994355867	-0.176323629	0.14375565194098644	0.027748324	0.089338066	-0.189833017	-0.144534355	0.096439397	-0.153137622	0.074797764	-0.220763087	0.13696172894263683	-0.199025768	0.089184454	0.10102581883826678	-0.112513528	0.09398466	0.042055773617248444	-0.087011266	-0.162859695	-0.316921458	0.056460894811312785	-0.252681689	0.015396019125690092	-0.04254117	0.10966682001622188	-0.048773793	-0.053198668	0.11818123626588471	0.054104601	0.051052326	0.075776532	-0.247961574	0.12220494859110713	0.098900419	-0.164172262	-0.0394137	-0.006347274	-0.021718312	0.053911139	0.23113467288081946	0.17468185087692145	-0.211894923	0.10045080376562829	0.21459389164968437
Boat	0.050722282891896335	0.14306049323113745	0.2638694479117911	0.1342392486707766	0.032691889	0.1370426720050969	0.018999172109342616	0.003134411	-0.046081023	0.20501072345138133	-0.107320724	0.2009397028975648	0.065547288	-0.183491314	0.048209929	-0.275376919	0.082022998	0.11608059105052151	-0.077675761	0.016200835425588315	0.25624907639929095	-0.066318672	-0.138854775	0.19429083443242623	0.25735447218366764	0.000484614	0.13263336114020327	0.17590801970697728	-0.097362114	-0.063638257	0.16140483448870002	0.22095627771915163	0.073810686	-0.115370242	0.2605637426278094	-0.069626326	-0.043946688	0.044890832	0.20379738372470624	0.11198204990000478	0.054401401	0.060751123	0.005706088	0.073188952	-0.331701746	-0.038894199	0.031644596217940656	-0.15093272	0.050658658	-0.026812354
body	0.3303649494304202	0.2960283542929829	-0.087660475	-0.028386319	-0.013916276	-0.084998306	0.036701971464455724	-0.142701957	-0.212771774	0.11718872678839864	0.11847188169905118	-0.151365089	0.16849794724585182	-0.118857324	0.047643451	0.15438146395436814	-0.006325586	0.085578205	-0.097187477	-0.036973268	-0.038740918	-0.14049942	-0.033267329	-0.291436222	-0.092430777	-0.05361104	-0.048210756	-0.045447676	-0.011623474	0.090226639	0.16457635343460486	-0.12228005	-0.226431725	-0.196103512	-0.091687267	-0.066228469	-0.144906427	-0.243917655	-0.085837892	0.03414288	0.11197926555121582	-0.104902072	-0.077722525	-0.174396399	-0.005916573	-0.159666741	0.10785756887451278	-0.336084227	-0.067679113	0.056665729
Bolt	0.023726197751696022	0.34757047012587544	0.045146171254839135	-0.129586099	-0.012320883	-0.229247329	-0.010402429	-0.107516549	0.11814283374194176	-0.070925208	-0.015070136	-0.082026876	0.22442102745547163	-0.041460491	0.23651494656516978	0.1050767075428973	0.062216883	0.047589733	0.050824583	-0.248790824	-0.035993472	0.10907845575943499	-0.006310808	-0.181357739	-0.006763465	0.21993663256090223	0.16092733839943577	-0.008002411	0.12279670950685836	-0.047302423	-0.219906441	-0.119314171	0.20171080342974088	-0.035362315	-0.031411818	-0.038697958	0.24575320333855438	0.2098508132952339	0.286361994	-0.02052682	0.038154125	-0.195742137	0.19061729517048337	-0.150716901	0.027977662	-0.141620939	-0.076000803	-0.108059435	-0.078454084	-0.069580687
Bones	-0.066451469	0.10100203306964886	-0.133911973	0.026730140451015936	0.1476195182263007	-0.062200608	-0.087013461	-0.027940128	0.14298547415811844	0.023526302102284773	-0.064384424	0.058646989920901796	-0.133600405	0.082582378	0.049524168189466686	-0.037307112	-0.101638574	-0.107467816	0.064821121	0.14895533182991158	-0.0772432	0.055557548	-0.252952591	-0.070857046	-0.003764416	-0.110255773	-0.113506779	-0.080936455	0.035414446948501925	-0.022704718	-0.271278898	-0.257033854	-0.073553489	0.055472692	-0.333004059	-0.060568474	-0.06378248	0.1682698090215488	-0.046665551	0.046419167101305316	0.017120698	-0.258229676	0.093108524	0.026106564	0.061603356	0.47586925847958206	-0.252599398	0.20903729656475098	-0.034839316	0.034824940031997056
Boots	-0.006974076	-0.065007924	-0.087318442	0.050492325	-0.232484359	0.11501512128994272	-0.063775618	-0.17316636	-0.068957794	0.19263946551355945	-0.082032159	0.054927698714743185	-0.112008204	0.11614027842670574	0.10504389028338354	0.2832718764114655	-0.02690257	0.10246142818519335	0.015027395433741346	0.19857312408403172	-0.110150398	0.11416101076339483	-0.029834472	-0.009835886	0.014059706935813897	0.038652098332313825	-0.017810376	0.03290161	0.24182317822603308	0.15100554347970702	0.1331850458970305	-0.069804674	-0.136262964	0.14638563702326438	0.13424117329443164	0.22566493145671987	-0.09255107	-0.035174926	-0.251226623	-0.060140374	0.15270964490891156	-0.071483496	0.098144026	-0.029191775	0.049656932	-0.175866678	0.013057084	-0.458347209	-0.028639063	-0.249845834
Boredom	0.16844989222358325	0.10858605324506011	0.065183279	0.2124498341584711	-0.132541967	0.24406673357615166	0.13020587272736542	-0.033041371	0.15862019998867113	-0.154523939	-0.115165799	-0.085006086	-0.073886105	-0.147576974	0.17083677247772897	-0.036156048	0.049236893794524075	-0.079665061	-0.254296703	0.037720846	-0.267098349	-0.009586609	-0.191122362	0.27757707294347245	0.12729655916388558	0.014771389502602818	0.17651096313661213	-0.118211014	0.075911658	0.027908954	0.036877575839120276	0.17771872676252248	0.10231241856819313	0.040328102	-0.231149982	-0.134096543	-0.017139636	0.013041988307375033	-0.157863649	0.33685615523571444	0.21180561907308706	0.084102179	0.010061904389182159	-0.029640747	-0.13296127	0.010822258986136183	0.036002143	-0.173445594	0.046676813780007716	-0.021686143
Boxers	-0.253015862	-0.114105353	-0.054852891	0.2503475349325354	0.073810782	-0.177113262	0.06445875	-0.20520542	0.14358786284382133	-0.06248115	-0.01241815	0.1758288354767748	-0.170705267	-0.185287588	-0.077397684	0.1377111222123737	-0.201497606	-0.375604073	-0.059833261	0.073172566	0.15918023787066382	-0.061425048	-0.054563919	0.1530317811076883	-0.247967519	-0.051526119	0.025254258165873792	0.059575957	-0.067611211	0.004567611	-0.330005134	-0.087297741	0.060144902	-0.130273083	0.007822562	0.059264799	-0.04542931	0.022607122	-0.127678816	-0.02740105	0.080927644	0.020817953	-0.077786522	0.029735864345655852	0.094772458	-0.271865816	0.15371787479651305	-0.044594531	0.056429015	0.15878040780457817
Bra	-0.198769861	-0.102805419	-0.041813723	-0.11357408	0.2514104498021254	-0.124155235	-0.080504537	0.029618107708139437	-0.174204036	-0.057338272	0.046002297	-0.048234953	-0.013532732	-0.076705758	-0.219462583	0.046602219	0.2543081511222688	0.002666589	0.032643126	0.10038277011255933	-0.183939261	0.24671217493274938	0.029319558	0.23647312687197902	-0.106224145	0.2634561816750663	0.11232813587313786	0.080141291	0.03391259	-0.036014395	0.17396958970274098	0.020339612700622733	-0.285048967	-0.161891999	-0.026930993	0.044922094	-0.008200264	0.176641613	-0.28273506	0.020807393	-0.263444198	0.11009025493381829	-0.013688055	0.060805872	-0.125185673	0.18540784628911866	0.1509567957749014	0.084561671	-0.018768403	0.084027383
Brad	-0.109413909	0.13242420830421134	0.25530916573421875	0.16571073350113846	-0.112928982	0.055940723	-0.200154418	0.088595444	0.069745083	-0.289413022	-0.179822673	-0.04382467	-0.04656753	-0.187204683	0.06020672	0.038923468	-0.030069272	-0.11698256	0.1623204866854091	0.25622643490289926	-0.074846383	-0.094752128	0.076029871	-0.055416333	-0.021576111	0.11448464165261643	-0.295533044	0.20404884221564093	0.011249602	-0.063691536	-0.013811798	-0.005815242	-0.267957975	0.23138881631709626	0.006396444	0.068568545	0.14728232313319434	-0.158057081	0.073284702	-0.041425896	0.13106447060561474	-0.329255501	-0.015337967	-0.093305499	0.066906318	0.072754155	-0.109527414	-0.110231356	-0.017128954	-0.13878365
Brain	0.10938145868805806	-0.047963425	-0.377644619	-0.048692847	-0.134916434	-0.211917795	-0.160753149	0.014213170999107554	0.1726027150540757	0.040685555759376636	-0.078790392	0.059226165731153295	-0.059640072	-0.090235003	-0.149962372	-0.227578742	-0.050654691	0.020532608139067297	-0.012552307	-0.054037946	-0.122861148	0.079016798	-0.171107602	0.10081319348264768	-0.130197247	-0.097748287	-0.190548944	-0.06513677	0.12670209644341385	0.066984851	0.12710606916064918	0.067831139	-0.143376904	-0.042972575	-0.101355073	0.17285396936262662	-0.155473899	0.11609958413628926	0.1160029551417808	0.23768456276505573	-0.053222072	0.092537228	0.2964076471396413	-0.080237358	-0.199415906	-0.244230667	0.092587875	-0.244638605	-0.048367684	0.056811022
Bread	0.023809768	0.054703465	0.028581906393616918	0.16443585711291703	-0.122448312	-0.087047659	-0.099348123	0.10674560280727476	0.11577275120241289	0.058018301	0.15217295941201647	-0.151471841	0.21437075174598516	0.19585717730603944	0.094585868	0.2291027156379465	-0.213007693	-0.067433251	-0.094544911	0.092767411	-0.135026514	0.097398306	0.1762227773986987	0.089388803	0.036484549275391825	-0.127020206	-0.108887628	0.16067530589826468	0.10020826275373025	-0.005017108	-0.053734578	-0.260477253	-0.13768961	0.24576920629497465	-0.164640267	0.02436321	0.12953658742068447	-0.161357261	0.023749970420796757	0.12059665971561372	0.001607156	0.36881767429675627	-0.214547567	0.13613072728115203	-0.022218752	0.099253065	0.056743029	-0.094268817	0.029444229158223596	-0.238887938
Breezy	0.08399042	0.041512737108386974	0.088920942	0.1473222895515749	0.051183875	0.020618556418299874	-0.12267154	-0.099162817	0.1652295940723295	0.19998162352510673	-0.033152223	0.006404983	-0.125949866	0.16328346219488435	0.092646283	0.2702765753855777	-0.122289316	-0.05263021	0.032224319724389404	0.090011029	-0.030027502	-0.121542765	0.12271876604946001	0.10040400035418523	-0.127573254	0.18871890986163073	0.16292729176100612	0.018698162	0.011082446122160302	0.077141712	-0.119975305	0.004181296	-0.299677327	0.12202931309715392	-0.217407403	0.20932181782519796	-0.045962769	-0.029470489	-0.087399674	-0.040103782	0.1975027561786832	-0.346378716	0.17779246412836483	0.047063161	-0.168054166	-0.149716227	0.23340495396511235	-0.131643347	-0.16058151	0.15834881444631763
Broccoli	0.045713143	-0.126643514	0.029249813464039678	-0.13850238	0.14863854225923176	0.14331174270510735	0.071834201	0.048833328	0.23780463924453876	-4.24E-05	-0.159582697	0.060690269359479763	0.28166875477863246	-0.137018023	-0.048806554	0.056230677	-0.007278509	-0.13263566	0.15147899251514022	0.313263779	0.026482673939899302	-0.12207193	-0.209148582	0.034833238	0.14905117158753872	0.064159582	-0.000324579	-0.079566476	-0.147469526	0.11271239864312478	0.12338212352633264	-0.208712351	0.21466820002072992	0.077514036	0.1889804359784378	-0.181220961	-0.184420572	-0.020114599	0.067888528	0.24255383704755468	0.095338391	-0.032768069	-0.138585626	0.16608097586853776	-0.130259467	0.21988416326499463	-0.038399072	0.2147685364368458	0.091672779	-0.018497833
Bronze	-0.06699212	-0.043970545	0.055244597	0.009951701	-0.076590225	-0.021363259	0.010134922105236898	-0.274565663	0.059094854706057236	-0.126365152	-0.148757647	-0.217634894	-0.231377551	-0.174826599	-0.091450036	0.25193277578612155	-0.067828341	0.022926337	0.051654379	0.016904882479698395	-0.009988714	-0.154169854	0.18714168421370647	0.23309352971956177	-0.217030535	-0.132079948	-0.03609014	-0.124406782	0.065259803	-0.093933075	0.2792504969851618	0.15355781847822922	0.027417952	0.13246143076539818	0.14263983631183544	-0.072738355	-0.10527629	0.010078948760123328	0.11113445031018604	0.017936110760522997	-0.203402146	-0.103548877	-0.009541073	-0.009759404	0.2544199161321447	-0.178765727	0.065211266	0.19206688535741848	0.2929732304479033	-0.052159472
Brown	0.072199317	0.083707454	0.02871958	-0.014522036	0.064052175	-0.372029873	0.10020756947191027	0.018537673	-0.032685333	0.30071875177727125	-0.099159248	-0.059218695	0.29259293780955914	-0.122243909	-0.08082126	-0.021600527	0.12351814624883926	0.030529710675274716	-0.189908574	-0.078184582	-0.089230661	-0.01134508	0.062563652	0.061441514313810675	-0.260926231	0.1563109653464009	0.037106645	0.20341122622654273	0.065260264	0.16180301040614226	0.068543414	0.19778338271247758	0.076727471	-0.014385409	0.33385917921449887	0.13061462283819336	0.084292781	-0.187510753	-0.189274226	0.043004866	0.021379530601284565	-0.090225014	0.020712748292576015	0.2333962236637474	0.10216641089317535	-0.167633491	-0.016382537	-0.118263221	-0.056959689	-0.060767152
building	-0.061981737	-0.162872793	-0.016565125	-0.072747318	-0.380140262	0.2664041622092911	0.1412843254115454	-0.048830709	0.002442056	-0.152039868	0.22004568362883006	0.24620189616216603	0.020333380532595712	0.1328185774114098	0.022746109996112797	-0.173460338	-0.053440309	0.017119648509769523	-0.05898444	-0.028373569	-0.011860475	-0.010495208	0.006781329	-0.137629544	-0.093043687	-0.166694232	0.1268863526635741	-0.273239529	0.14969578994563892	0.17989979663595962	-0.0392125	-0.337796398	-0.046885509	-0.008328865	-0.1311404	-0.066857377	0.19856596441874239	0.086284353	-0.119976174	-0.207312649	-0.042435442	-0.027699245	0.064389347	-0.069465438	0.066374804	0.25111549725735327	0.10582358847184968	-0.006240211	-0.023766543	-0.046283732
Bulldozer	0.14481514179696167	-0.07694506	0.00554693	0.006279836	-0.061547883	-0.168343982	0.039615430945089944	-0.00748263	0.061358533	-0.065450387	0.14974359064787063	-0.107543384	0.20999556586364784	-0.21436173	0.053328059	0.058315412	-0.097581499	0.052055344	0.15694329718621175	-0.271910732	0.06166571	-0.3058198	-0.118446586	0.19983041046236308	-0.071360264	-0.143985857	-0.024278661	0.2536454110860984	-0.224670619	-0.12895165	0.18367208796833073	0.227862194	-0.012686675	-0.15197982	0.25707212980478206	0.1955712347530611	0.083278331	-0.099647708	-0.006013845	-0.019669459	0.040581584	0.17797704348069665	0.1078676015440381	-0.132148876	0.1688384050477952	0.038408185570165204	0.084274168	0.17988307896798997	-0.136344294	-0.004394297
Burgundy	-0.067894837	-0.20029852	0.04429319	0.3208585234490677	-0.235075188	-0.00412394	0.08183119	0.015723591820879384	-0.014452432	-0.165978601	0.029739171340250784	-0.09667876	-0.279768753	0.1526125683914924	0.12243652600816436	0.006599837	0.029264946	0.1372471947952731	0.028660031954875383	0.1154908248471513	-0.038004201	0.16760967	0.040981293	0.02479069	-0.162253932	0.036659430044777605	-0.106284617	-0.081542441	-0.104166566	-0.136214558	0.27144561591047645	0.17008236799214546	0.2453324337168006	-0.156228332	0.00910287	-0.165249294	-0.088877008	-0.117293345	0.15836039755784478	-0.050619473	0.13648851158708938	0.077178169	0.29429643067129235	-0.189003225	0.16087064324356576	0.14646109587553782	-0.124351927	0.1286641604996919	0.042943479	-0.029060742
Bus	-0.138171628	-0.120592601	0.3437476333741368	0.000114507	0.13116096717844092	-0.132631567	-0.130779112	0.18144576192669576	-0.226320076	-0.069630163	0.0057063	0.018676867	-0.030033432	0.066377847	0.11618993117547431	0.12319661795273291	-0.165316483	-0.047651998	0.20035831921268918	0.15002977788333993	-0.230224609	0.058942175	-0.331742724	0.007870849	0.31825010792113817	-0.158958901	-0.139913592	0.1281256119929041	-0.258723407	-0.106111211	0.10002147509627993	-0.106367925	-0.039571493	0.12479781792562902	0.070692074	0.044744683	-0.056869838	0.062058192	-0.020749617	0.076772693	-0.083334081	-0.030616296	-0.166013094	-0.005870676	-0.136002528	-0.186822408	0.043376736	0.035675853	0.13128568914808855	-0.072298527
Butter	0.065587994	0.088531935	0.071490304	-0.132710676	0.024007800271749122	0.058529751487068876	0.001153824	-0.335368044	0.02579615	0.3556291168443155	-0.057870577	-0.117026795	0.060009833	0.050209821	0.1917131764270094	-0.202182267	0.11755772401343384	0.09490094	-0.022847791	0.054438590742516224	0.16546888992315995	0.1402108005199983	-0.183722145	0.13182736261541805	-0.010397663	0.011713350301808256	0.011765250205341984	-0.024149167	0.191547995	-0.013456328	-0.179949205	-0.063253655	0.028722329	0.19757669400679986	0.096937863	-0.136709996	0.3994546876502517	0.042558413	0.20499874293721726	-0.024385678	0.085729002	0.13493118856394862	0.19580539290585713	0.16995511019961573	0.14019177282806217	-0.050645172	-0.091899068	0.053461359	0.14998547200481216	-0.035798804
Cake	0.12685508949199367	0.1729972560089215	-0.109127893	-0.099671841	-0.016717761	0.036634678538352394	-0.062472537	0.16103859035002052	0.05050362	0.004697888	-0.171007534	-0.15670515	0.033466383588746304	-0.253978341	0.1205985637607214	-0.0188351	0.38623138998300327	0.2748578933126337	-0.02160941	-0.012664049	0.11856731694079006	0.20283683837525823	-0.195078663	-0.21274576	-0.074080321	0.069400276	0.059174429875063446	0.12740285890545544	-0.142876214	-0.275837749	0.10218393933927444	-0.098632818	-0.240388845	0.017276154	0.094462093	-0.014536215	-0.054526781	-0.018979011	-0.044134009	-0.160543689	-0.085113845	0.062081064	0.038309833	0.020014836	-0.118515746	-0.021615852	-0.259274361	0.021255415931106494	0.1701677083422389	-0.175559599
Calipers	-0.093508078	0.052522084	0.1999409009293402	-0.071532075	-0.110476089	-0.314220043	0.016507669994611323	0.3258944994469633	0.044263580470291906	-0.003555498	0.05140105	-0.001770171	-0.129748798	0.13138707410995226	0.036029236	0.002810895	-0.155658466	0.20802656544225553	0.10607977578352462	-0.088240524	0.15988102441142213	-0.079407229	-0.124799778	-0.121240866	-0.28264447	0.075253352	-0.292232038	-0.196047101	-0.331242668	-0.013735845	-0.023989612	-0.052137382	-0.166384762	-0.187076546	0.074108692	-0.087862471	0.05048756	-0.141276658	0.028895766	0.2079898766068682	0.093546081	-0.065817037	0.041046331309248965	-0.038407706	0.001257597	-0.051964202	-0.026226222	0.033847935	-0.158529913	-0.162123895
Calm	-0.210517848	-0.242618152	-0.184553028	0.024176215	-0.135356101	0.077869426	0.005262974	-0.298446215	0.099301278	0.12292571465821818	-0.150680172	0.063705516	-0.12985426	0.014807869904573634	-0.191711433	-0.271854046	-0.058039165	-0.018758627	-0.060292479	-0.17951165	-0.060628959	0.040827954	-0.006806262	0.027669100995966235	-0.101596605	0.1776449218649185	-0.178320411	0.073919337	0.17918728409352358	0.072910791	-0.030704831	-0.080095462	0.15708192859704231	-0.215738162	-0.147081176	-0.060273994	0.18764149825455384	0.05757682	-0.146766053	-0.047045955	-0.093137935	-0.107611575	0.1484100882645704	-0.207970876	0.24390832112858885	0.12556844676621198	0.16538625364174936	-0.070186563	-0.022732611	-0.217281087
Calves	-0.08122631	0.076425833	0.20065173001764863	-0.171405958	-0.056586289	-0.02342359	-0.216090965	0.091550521	-0.112085528	-0.030249618	-0.069969144	-0.122202493	-0.001090679	-0.033379884	-0.057569674	-0.112777757	0.049467638	0.2560069609992478	0.021656828362944892	0.15421536884886702	-0.21522906	0.024424047454033752	-0.169890539	-0.228652101	-0.11446677	0.18452548375867941	0.14707796648776514	0.0376211	-0.23728708	-0.030387451	0.046708089	0.027175875	-0.285449361	-0.137835744	-0.009920284	0.083026592	-0.339996455	-0.025099439	0.022146285932767025	0.13153381217824306	0.10726567019201037	0.090191555	-0.123843856	-0.295389893	-0.060850986	0.1550689657743917	0.21572951956859462	0.11000460613588975	0.066468972	0.058774418
Camel	-0.081276631	-0.019008283	0.24393413842257597	-0.137754642	0.23599955961082145	-0.047064343	0.19371160671671586	-0.205605699	0.085629768	-0.107678791	-0.206840984	0.031938701	0.14753407644366545	-0.123488003	-0.219080848	-0.013423092	-0.012778654	0.080136791	0.13878303451851176	-0.008683515	0.271181395	0.032771858	-0.050630156	-0.23553021	-0.03838763	-0.049162877	0.14034833149806245	0.067591878	-0.172364534	0.025174940101960745	0.098144131	0.2233214418976412	0.1297085066187308	0.11119756859696053	0.008781555	0.056751712865415915	0.18261486216857434	-0.194785119	-0.05107048	-0.11291075	0.055413143620185706	0.179796696	-0.087247659	-0.349342449	-0.06024597	0.13350398191531454	0.07857449	0.062579324	-0.040920959	-0.186930056
Camisole	0.060618877	-0.098144351	0.2569356704541648	0.067114084	-0.068307076	-0.071922949	-0.010933894	-0.028174845	0.13138357404962947	0.021929872804924238	-0.086068666	0.22239017048597087	0.005800599	0.090445782	-0.071551357	0.042716678	0.03659877	-0.222297072	0.2370756083016396	0.15183054615526678	-0.04672579	-0.129670271	0.040886914	0.010199059036819384	0.041840656	0.022537036	0.059553849429268925	0.17026006886142403	0.066831279	-0.123480767	0.16029097738530868	0.19300079359319372	0.37080583383224747	-0.132167082	0.028572477	-0.244936691	0.065072095	-0.064489914	0.22627286938463012	-0.091125184	-0.198714356	-0.055439149	-0.232395052	0.088358835	-0.24293498	0.003347731	-0.244432385	-0.037679618	0.19332590073418457	0.042426375
Canoe	-0.112875228	-0.004078896	0.002355152	0.06178188	-0.178674687	0.077459944	-0.353516019	-0.08233803	-0.063826786	0.082788001	0.002958288	-0.183734134	-0.128757553	0.025971299869473073	-0.010335623	-0.075702664	-0.062854228	0.091002552	-0.06767238	-0.01151522	0.2836524618413307	-0.186102712	-0.242071475	0.10243024552627981	-0.088711705	-0.041599768	-0.102112168	-0.033960877	0.20895968727105035	0.10485362256658548	0.11270920226316816	-0.185128125	-0.150477942	-0.371122205	-0.105801646	0.1250595135177585	0.067574856	-0.028956045	-0.002915076	-0.090050595	0.026765926	0.10011502669653845	-0.211227493	0.039169718	0.12188717776631071	-0.054261594	0.091595052	0.36792949	-0.013639611	0.051412798699452346
Canyon	-0.121892325	0.029934169238161702	0.076015229	0.032178792702209254	-0.168405719	0.034081261043855976	0.24148601344437012	0.074093532	0.1588750489057232	-0.039143233	0.12384825761329155	0.046121915	-0.157045739	0.052604692442678784	-0.163781657	-0.104522062	0.031268134	0.049090777	-0.196405283	0.1740688886971348	0.09446854	-0.116388	-0.253936708	-0.023931423	-0.073648932	0.018685483	-0.059969798	-0.331537478	-0.064136653	-0.050473906	0.10465100517374046	-0.115309755	0.27723812110864643	-0.315713129	0.2165432166908306	-0.037046946	0.14196300136176093	0.013179452727237605	0.18820099017276362	-0.063973982	-0.181440435	0.23460051305748286	-0.018741667	0.036591042	0.20392295548090936	-0.170430481	0.098347095	-0.097422876	-0.021828163	0.011937086367401095
Canyons	-0.21472885	-0.111476033	0.1933809495061765	0.1268417821531805	-0.00896569	0.034798600074400804	-0.042115341	0.194169674	-0.028676744	0.033183882	0.16403289465830276	-0.111266266	0.22311167241285434	-0.219057078	0.23325295358934345	-0.053341577	-0.034737811	-0.270519795	-0.065095403	-0.148828961	-0.08697327	-0.01965351	0.137090051	0.029714557549009857	0.044038189	-0.15680322	-0.126063563	0.2574540233192149	-0.105230351	0.23705539957267371	-0.034789689	0.000327475	0.15320285986486987	0.18204773821262993	-0.015860756	-0.05556977	-0.008003972	0.048372333	0.1275735411709552	0.000605426	0.08858206	0.23450071601492709	0.054577377	0.044607308	-0.217403827	-0.376540078	0.05558876	-0.013572325	-0.073681563	0.034856818150554414
Cap	-0.008379217	0.15644589953577606	0.011945316684709087	-0.103613346	0.13735605660488587	-0.030120466	0.073041273	-0.066226508	-0.090144114	0.011675833546769593	0.001779592	0.066561701	-0.037266592	-0.254740193	-0.060034479	0.11011865484487875	-0.041252069	-0.034178354	0.1368303440858035	-0.098765067	-0.214017968	-0.022282781	-0.067164706	-0.134037881	-0.024328534	0.068181761	-0.001288511	0.042584475149180595	0.25155627477949327	-0.047564224	0.038612577678199235	-0.070638178	-0.117407188	-0.081138505	-0.066413484	0.049866554	0.32586425797183977	-0.099329687	-0.057794345	-0.008756437	0.054905294614634836	0.036559821	0.17813002263641642	-0.336589588	-0.331115384	-0.068788318	0.15221769915243746	-0.217187005	-0.417219353	0.07923412
Car	0.030209274237212178	-0.135166954	-0.122189835	-0.12023142	0.013704464	-0.077652243	0.061255366	-0.353924248	-0.106234786	-0.139611182	-0.031781803	-0.0667086	0.098918806	-0.230525546	0.005640155	0.069224043	0.2301921146460648	-0.059730634	0.040227246	-0.223647733	-0.296561127	0.10473738639366596	-0.00068938	0.1461151551229733	-0.170278163	0.064458858	0.2317010338805522	0.052036224	0.034291315	0.001060806	-0.194762084	0.16806755794517614	-0.075735764	0.062547183	-0.193789174	-0.146232564	0.17792597378671166	-0.043059467	0.18018098019350953	-0.009699246	-0.228363412	0.11060092678108831	-0.073136427	0.086625308	0.003125711	-0.191319925	0.020369704	0.27229361879438757	0.061121779581080456	-0.007131205
Cardigan	0.1589094816769527	0.031131652038022484	0.030964039825832793	-0.16131553	0.034557024762303074	0.15301323866329447	-0.123549559	0.2105056786449793	-0.01355191	-0.131190644	0.14742564650436404	-0.042381181	0.11223774366096324	-0.043114798	-0.008840842	0.072936139	0.042987478	-0.294890842	-0.16569243	0.13734408811150434	-0.019526559	-0.077394691	-0.200764046	-0.159558648	-0.298772442	-0.014966816	-0.088434453	-0.142838074	-0.010066978	0.053785967	0.30932351270248837	-0.223419431	0.17132819183313802	0.14380063559095216	-0.115130872	0.030033308562283242	-0.067627013	0.027440235	0.22301269221191897	0.089493805	0.075159891	-0.063589204	-0.219307316	-0.030806508	0.1783072050543855	-0.225678097	-0.15591643	0.018659286401872775	-0.14550792	-0.117115602
Carpenter	-0.063084768	-0.203375697	-0.145071898	0.10475858183016137	-0.194701122	-0.237964424	-0.093826989	0.1090070760283735	-0.029326742	-0.06918812	0.00660617	-0.259980917	0.073674447	0.057103377837639246	-0.060956602	0.14980813636922077	-0.167913285	0.16797477573307018	0.023008096385226808	-0.050121372	-0.002959698	-0.015974494	0.18173163533822964	-0.160345326	-0.113558806	0.15433226167057693	-0.088690531	0.13411263019425082	0.253089903	-0.059837655	0.10147244563526552	-0.171814573	0.11239927799096791	0.029699381352828076	0.070447616	-0.096142353	-0.247378216	0.074947228	-0.307294014	-0.047261683	0.1401662845863886	0.028578528356241716	0.29015853297320987	0.1526652247980878	-0.097382356	0.004067668	-0.007054721	-0.235626978	-0.140049683	-0.08351178
Carrot	-0.30511669	0.007116641	-0.037322076	-0.250674153	0.060569124	0.10726968022611413	0.034019895475490725	-0.048559873	0.088624425	0.10192736222011975	0.046062771	-0.12356371	0.041447137	0.17913634522559777	-0.089401655	0.31436492548640416	-0.078762968	0.004856017	-0.100768349	0.033455933824276016	-0.26106255	-0.081821426	-0.163648488	0.020279723	0.14901259024547703	0.096800552	-0.355380398	0.3059931535228232	0.044246111	-0.11635422	0.023544773494665282	0.026401097204948945	-0.099923693	0.029656748	-0.091026455	-0.06059147	-0.102835237	-0.214678087	0.021852811	0.087703972	0.077152537	0.12286138885964512	0.048600636	-0.07982605	0.1258191136664102	-0.203416701	-0.134960762	-0.144480194	0.16184059101197673	0.1412717877341704
Cashier	0.067947499	0.1494647461709819	-0.122602963	0.048606427339506715	-0.01745372	0.11808516844420197	-0.016066313	-0.053674585	0.075421683	0.12216881572863278	-0.09319084	-0.008516098	-0.147583873	-0.348317617	0.027951127120487147	0.084902835	0.036541336	-0.271837512	-0.048920758	-0.309315745	0.190984536	-0.151434229	0.17504744285950402	0.131887515	-0.125573988	-0.157950087	0.048853938	-0.117728484	0.014289965718581621	-0.067323158	-0.248356165	-0.311005736	0.031607762	-0.078300912	-0.077120185	0.097027908	0.16361914871036215	-0.038002325	-0.047491446	0.06973754	-0.189204571	0.031115388951826257	0.076952326	0.094848029	-0.270051484	-0.106159718	-0.122460805	0.013927756629502621	0.067032713	0.208694102
Cat	-0.072037952	-0.072417381	0.1673248367028372	0.043164213	0.1844957332374662	0.042021868	-0.168408334	-0.194025323	-0.225809213	0.096355929	0.17299000589969152	0.2691586932886133	0.1227067022052626	0.16924111564232303	-0.08441637	-0.168306338	0.12372170770925373	0.060789827459258074	0.015637601068835324	0.056378575	0.047036857	0.18684846017288545	0.18847397166659086	0.079206574	0.12309930589804913	0.074817366	-0.067119273	0.11011145666434421	-0.202956718	0.1533848167083265	-0.173852501	0.041596201	-0.123004862	0.080540989	-0.004937524	-0.232102961	0.061229199	-0.08411138	0.1282432978712752	0.000192943	0.057550111	-0.139365894	-0.085772218	-0.066750894	0.12468564969451497	0.24412775356563265	-0.117185797	0.15672595053181257	-0.315777816	-0.173803957
Cauliflower	-0.157989128	-0.222868659	-0.260946361	0.068054656	-0.035274436	0.06251906	0.11377725183192822	0.043768815	0.10838732370285183	-0.011457647	-0.195594769	0.17430840185538032	-0.097074889	-0.154169133	-0.029317607	-0.15041452	-0.068784881	0.056693784510688044	0.057400338	-0.14794595	-0.080364913	0.17703040148004445	0.081797647	0.3419327111630883	0.1944635075602592	0.18855853858955077	-0.228695317	0.12587019492459156	-0.008751028	-0.090791709	0.027685850715943428	0.15575354821350315	0.082527873	-0.144756392	0.12234362992864434	-0.105062749	0.035705409	-0.049986535	-0.036065149	0.1262628076214551	-0.171404873	0.32053251964449764	-0.300081629	-0.098484687	0.061004138584654685	0.096284272	-0.016556558	-0.009456937	0.067651134	-0.038076018
Cave	0.22095521673432683	0.13311876282753882	0.13842785534835195	-0.153230146	-0.012590814	-0.047653181	-0.159485974	0.057121178504539676	-0.085269332	0.10394548049528328	-0.169729823	0.2726357313682162	-0.142156217	0.034780826	0.12558699347509097	-0.090502208	0.13519948879311286	-0.19494558	0.23030239541280564	0.00224404	-0.094589423	-0.047449514	0.12829266218681268	-0.092693212	-0.118846338	-0.035135175	-0.186663377	0.2887339113001742	-0.089828828	0.13189243408482662	0.033221454	-0.156144747	-0.000944403	0.1243409664293767	-0.029857798	0.1892248607548828	0.1620098990881728	0.1457376990359357	-0.072900465	-0.171260431	-0.097313527	0.031123344	0.086560468	-0.344406033	-0.001286734	0.025072573181484845	-0.044017856	0.20479294373083692	0.066893311	0.20779330425582135
Century	-0.025944804	0.112625538	0.19643163010952652	0.15758264209146752	-0.131206387	-0.03047583	-0.04146698	0.05877747	0.082456314	-0.100781874	0.008149901	-0.242667588	0.17323064614743305	-0.061554997	0.006711314	-0.037200323	0.13768007553932018	-0.340888919	-0.001995513	-0.012712726	-0.05449842	0.20738331815297864	-0.106600914	0.092721116	0.042799067	0.15155487509221885	-0.080153956	-0.088056532	0.13167832166350574	0.051096737230503925	-0.185603816	-0.064790374	0.046418772225669466	0.10064630539568299	-0.081600591	-0.350109363	0.062858355	-0.146605412	-0.24235661	-0.340266548	0.097789049	0.015451687789644394	-0.027109634	0.16687292992616737	0.076566142	0.19417710082024425	-0.167318771	-0.004150801	-0.194226757	-0.027557257
Cereal	-0.041818186	0.10539893357141202	0.007664028	0.10485958754824128	0.11832145911794863	0.36246766908981565	-0.053034165	-0.158283802	0.041392253665328366	-0.134946727	0.24927176061810638	-0.047638413	-0.095132219	-0.0792772	0.12084069957967224	-0.026533677	-0.107930939	0.2801188893770198	-0.14401121	0.005982357	0.10972051780118826	-0.274397126	0.080781748	-0.177473354	0.13839537236949231	-0.161921771	0.11652653696956602	0.18600556860612122	0.1448970876818657	0.042272471	-0.038905749	-0.096956091	0.24743395042578986	-0.117657909	-0.174438684	0.11191773050187243	-0.133913412	-0.159804501	-0.242820042	-0.081227377	-0.013913	0.040889006130444404	0.16001353575216845	0.08862635	-0.032105475	-0.03333731	0.085810538	0.21405141875512448	0.021246556	-0.078909696
Cerulean	-0.152706465	-0.222277917	0.10247474083924595	0.088895236	0.088800646	-0.019788299	0.21639177	-0.074459216	0.14692394329501754	-0.005958801	-0.093566599	0.091133354	0.063003551	0.054903731	0.012500922	-0.005828096	0.3673404497708005	0.18214305392502575	0.11117345099633857	0.017195124202185934	0.15490450405610265	0.079669513	0.004030388	-0.046689316	-0.012445386	-0.487623209	0.032391188332738276	-0.075129429	0.24495853880892157	0.00297519	-0.182866973	-0.007671752	-0.160897294	0.072811812	0.044748781176104355	0.14731927938777148	-0.121640546	0.005230571	-0.209945403	0.10789249307617088	0.079804307	0.076256647	0.000249013	0.063793605	0.24675329110800476	-0.043848552	0.021324142	-0.167050244	-0.133541749	0.015044046398850817
Charcoal	0.14084304208788856	-0.03269705	-0.030098915	-0.051911599	-0.068225806	0.037633313413874846	-0.191024471	0.163425985	-0.084896506	0.092102539	-0.162030103	0.085332563	0.085728641	0.049017614112230865	-0.126872074	0.031838081445684216	-0.150937738	-0.032248269	0.13133550759176724	0.10164554141973753	0.001937084	-0.124368649	0.082365952	0.002472714	-0.29603259	0.099850182	-0.003091695	0.15341221601090185	-0.139737788	-0.405293081	0.035606327685569684	0.037198539	-0.215700787	-0.124839809	0.3515186668612261	-0.038990688	0.093257865	-0.083013067	-0.266686903	-0.021722041	-0.0338866	-0.051017625	-0.01462621	0.033716112	-0.019152356	-0.161265571	0.062028865111515494	-0.2487065	-0.261590548	0.09430679
Cheese	0.081863447	-0.00926705	-0.225308989	-0.114299236	-0.042423066	-0.257672895	-0.1193235	0.10532519723815496	0.23045259466703205	-0.067721897	0.12214254107729418	-0.309043965	0.10647493758051346	-0.129805438	0.049623995	-0.040002083	0.2131939262632276	-0.1411863	0.10133325588285684	-0.04512925	-0.025559988	-0.029685033	-0.136542303	-0.002276418	-0.010115176	0.038950629	0.013644193	0.12884412760535638	0.14910961738832998	-0.169633546	0.1402719291510628	-0.191545772	0.094915158	0.10006296797020192	-0.308601052	0.015012421	-0.07564334	-0.12251017	0.21810849479755257	-0.105542975	-0.130197546	0.012221698147982574	0.11069525825699021	-0.022870568	0.18832208251843668	0.085731282	-0.351693802	-0.085487688	-0.090714974	0.077397576
Chef	-0.330672602	0.32112244568700093	0.066898293	0.018755395	0.14885306773986046	0.29525188496125293	0.10969604828403681	0.11953080484424468	0.016464237	-0.017829315	-0.059940375	-0.104073006	-0.086549552	-0.170142088	-0.009558232	-0.212233233	0.024051529088106333	-0.004576904	0.018510805	-0.065777767	0.38762069980769587	0.17134644202802693	-0.156786587	0.029336557448656223	-0.076596185	-0.127803441	-0.168821335	0.054450354	-0.085839802	0.12192604005060567	0.1251959826276199	0.17308476544233947	-0.107383084	0.059886224	0.079676136	-0.059736632	-0.097227287	0.20276627853165502	0.02865977	0.080118769	-0.103564556	-0.153604597	-0.071738881	-0.015624127	-0.134069686	-0.001240242	-0.212716693	-0.141102784	0.084520926	0.076065104
Chest	-0.058388134	-0.151642977	-0.153079187	-0.055615536	0.096030782	0.13830504635464738	-0.073981323	-0.171865946	0.039907674332699296	-0.122703551	-0.077217655	0.19746105242368386	0.12323702523494834	0.023537566381954804	-0.189511051	0.031497277429750586	0.15833185893771665	-0.055967975	0.20131081521682345	0.19261408790665308	0.24788980828783327	0.045480055	0.087519109	0.2107084797598402	0.06665998	-0.074681959	-0.066831162	0.035543772782856004	-0.1922887	-0.021345029	0.16338131319225704	-0.326488416	0.22863194539767978	0.16722945206477713	-0.068503164	0.080963148	0.000468999	0.18326384545487714	0.14641601774191554	-0.208605166	0.087499846	-0.030637761	0.012341735180681645	-0.108494819	0.2604657157404998	0.15496522047411945	-0.110223065	-0.19885186	-0.057463742	0.064739227
Chicken	0.031050691	0.16198873458822358	0.10211056138125037	0.12533328987427725	0.042251621	-0.179590494	-0.025297364	0.13703463202276459	-0.006660215	0.065032988	-0.041203642	-0.1331207	-0.015944318	0.039949639	-0.084758792	-0.030469688	-0.121441605	0.1446814450208336	-0.038063416	0.18779336696773358	0.19761666514432535	-0.01047657	-0.130359153	-0.269637784	-0.190285832	-0.177591521	0.17819064843512175	0.014972298186001352	0.050363012284176764	-0.287027187	-0.15485754	0.11467015118043361	0.037070432	-0.019028786	0.073015483	0.21145469292701588	-0.028573499	0.008967227	0.024896428	0.3092208624301219	-0.271377509	0.088318197	-0.014840144	0.073264887	-0.084976585	-0.006329563	0.091961919	0.40239659706234454	0.1044524229480137	-0.109626905
Chill	-0.053742521	-0.057503388	-0.227729052	-0.041863065	0.092939664	-0.161602081	0.13297183108820224	0.06186112	-0.093117754	-0.017949229	0.20270414318946914	0.093030815	0.00111397	-0.030143738	0.009715801	-0.064903446	-0.266930879	0.25899535476298385	0.019698799533423416	0.050494274591052865	-0.007344041	-0.093229799	-0.023579521	-0.202840219	0.2887871925100261	-0.156564652	-0.130877174	-0.055835042	0.16335776995667173	0.001840076	-0.156770587	0.15907909250281835	0.092707773	0.068285996	0.090771643	0.3036604238413036	0.2771205312775506	-0.087091376	0.20594614584646256	0.048594582	0.063296884	-0.214619051	-0.021608853	-0.103084816	0.10501699456329579	0.1358377606331576	-0.263092812	-0.00279453	0.14227796556326566	-0.023675207
Chimpanzee	0.11677520788455548	0.056246695010964215	0.054724227	-0.043456923	-0.194861556	-0.179637151	0.11361804680122703	0.003116658	-0.022185712	-0.067895098	-0.048882551	0.16768541851754112	-0.053696543	-0.214800329	0.11911181044028178	-0.0328154	0.005028722	0.2574882072468387	-0.003293215	0.046318979	-0.188829928	-0.035184783	0.097628693	-0.249126523	0.032169657151268086	0.016143855946851412	0.006613073	0.16612328269329651	0.053567514	0.2367449733395135	-0.15914471	0.02177124	0.013529170748864405	-0.171264082	0.1531711921636364	0.372346379	-0.002723888	0.080889978	0.013537449920971723	-0.114295917	-0.291633881	-0.113044788	-0.222952043	0.2729485632508957	-0.018437291	-0.055406413	0.14241708997930752	-0.179672542	-0.122829753	0.010903236565382949
Chin	0.18436849703029348	0.089908345	0.044503026123617354	0.013999692406111933	0.071727359	0.036138767158047994	-0.184584141	0.008257983	-0.192418673	0.014531023674551592	-0.086138229	0.45508950705348605	-0.007149581	-0.251657603	-0.024046802	0.093075697	0.29988811706886387	-0.105637372	-0.283591233	0.14638758882872896	-0.24742086	-0.078164606	-0.04616887	-0.012479201	0.1235070421219477	-0.122515964	-0.049055766	-0.002557429	0.026809858011347457	0.017531874813473295	0.078137784	0.15122678018527616	0.070365031	0.081288299	-0.283554529	0.009001443	0.085933856	0.1306355397439259	-0.124078071	-0.118108226	-0.102886148	0.096132198	0.1852846438739581	-0.073022037	0.16271840278927974	0.022129153404753455	-0.022273593	-0.037882744	0.13380225911258392	0.058347689
Chips	0.311195754	-0.116532967	0.070845087	-0.072362803	-0.118866068	-0.001485969	0.018781540910564606	0.39903026319655427	-0.025180049	-0.154540334	0.037331411720993926	-0.283685718	-0.012574146	0.002191293	0.10865344159976847	0.13313284323667127	-0.068857974	-0.02059492	-0.104759155	-0.154250969	0.042374928	-0.174149744	-0.05669597	-0.136079818	0.07516353	0.2463270648841512	-0.177978789	-0.253381247	-0.017076999	0.002146512	0.029899414506874278	-0.061029747	-0.027435363	0.050253274206807884	0.14226823905315897	-0.26733284	-0.050448679	0.029236156695376363	-0.125523804	0.23671966754827317	-0.086885775	-0.005646351	0.076030311	-0.080852122	-0.252499899	-0.058614104	0.14076542338082945	-0.046066949	-0.115741198	0.12657616773722039
Chisel	-0.047347402	-0.073024856	0.021393272605199447	0.11032584474834713	0.340920514	0.11841128454415822	0.16602048558375057	-0.072424435	-0.146843639	0.008922163	0.015340393405110692	-0.154379237	-0.025091809	0.057158663	0.051587019	0.072184195	0.041648941	-0.072573653	-0.073560176	-0.171618929	0.2554742268331655	0.001925297	-0.032185659	-0.132948094	0.4202125849912687	-0.153637093	-0.061385659	0.059523241	0.085914998	0.1371192143502137	0.2587426290711995	0.07245184	-0.151161153	-0.036779345	0.044063389	0.2960476459325482	-0.200083073	0.17213783033430433	0.025753097	0.11992777997539598	-0.014599611	-0.120586528	0.10748057237242167	0.093675817	0.13914106613320582	-0.001904437	-0.085859038	-0.223126105	0.1172857909651491	0.060675903
Chocolate	-0.130134022	-0.072569909	-0.062893242	-0.199824186	-0.11017831	-0.15277755	-0.055579331	-0.09953552	-0.219230173	0.27253316820090073	0.1687731348489483	-0.104968682	0.03670732	0.056251178228146154	0.1604924204094945	-0.11030263	0.14715552233663512	-0.073827296	-0.180000283	0.097573511	0.17392276368755202	0.34870683191882934	-0.161656535	0.094175673	-0.055218516	0.10555337803484587	-0.198140568	-0.170151444	-0.104544964	0.010639980958389389	-0.086382257	0.088804032	0.13836853332545052	0.080789853	0.21812293830620227	0.056030404	-0.163970295	0.18370766113148085	-0.081541552	0.12267400205832033	0.21205223156999317	0.061536256	-0.201599363	-0.123724157	0.17823271112058978	-0.022788373	0.010722106363891362	0.1022475136681735	0.093825765	0.037566777004471516
Chop	-0.034250549	-0.051320983	0.14081437283466552	0.090862167	-0.04223288	0.17761647667375122	-0.021179488	-0.139790697	-0.124576442	-0.16064922	-0.044713018	0.20250186313731558	-0.132147253	0.030936160885040757	-0.107788116	-0.04272678	-0.247856157	-0.036198852	-0.031794544	0.088682145	0.036649032	-0.19670249	0.1779588586236728	0.034518861479996645	0.032564048198019065	-0.001507179	-0.084984019	0.035749787	0.078062454	-0.286733137	-0.088431488	-0.041846657	0.042047503	0.19586848232280438	-0.126672511	-0.081734796	-0.084126668	-0.131561673	-0.05698673	0.12651845181197652	-0.172975157	0.070220886	-0.27934797	-0.092137273	-0.054081936	0.2749092404309729	-0.045105685	-0.361309178	-0.328094968	0.005585571
Church	0.080607626	0.049309291	0.022007282286536412	0.15264163575166903	-0.070865482	0.11753020703509762	-0.214335439	-0.118848421	-0.237321985	-0.036095926	-0.006075569	0.014985153448111172	0.008127252	-0.121817241	-0.024984671	-0.196662354	0.1790353042597641	-0.039875756	-0.06420629	0.2086783807731185	-0.163146463	-0.147825373	-0.14396858	-0.00891367	0.056686955419802586	0.097142905	0.3377847541552791	-0.295421995	0.079946336	-0.073168956	-0.077014952	-0.081395784	-0.119350349	0.2212316652579218	0.11062041738402054	0.003046369	0.17743131984322655	-0.19864314	-0.17476389	-0.286036405	-0.091855365	0.021236157281745376	0.013508601366146558	0.019613340805601974	-0.185316622	0.10547975162985676	0.031470711391510114	0.096273332	-0.248579849	0.040908653
Cinema	-0.197028858	-0.065908771	0.088641511	0.015110788418013376	-0.141255144	0.001040604	-0.254054121	0.19080864133019318	-0.034052921	0.18554728742584733	-0.087342123	-0.086851825	-0.126764823	0.14534147283617432	-0.11768185	0.1069267712058693	-0.063441964	-0.327776719	-0.094604831	-0.195592814	0.005623851	-0.197467201	0.15360258971346763	-0.015107845	-0.029459977	0.10880069114074928	0.15989479760585107	-0.003334021	-0.127928238	-0.294269605	-0.113803297	-0.102384394	0.017758903036435642	-0.05725365	0.11411568839684018	-0.101682883	-0.009462102	0.1964021897812555	0.056702646	-0.009959147	-0.09985174	-0.105041682	-0.141101417	-0.089743294	0.12535135091596758	-0.036807267	-0.223903039	0.2933074358654046	0.053076462	-0.233386567
Clamps	-0.063348406	0.015897912	0.2443893940542702	-0.1588714	0.13993611780415552	0.20064603210339957	-0.090130915	-0.039787457	-0.148576888	-0.029170466	-0.005245948	0.094574804	0.15630089975091052	-0.107255422	-0.282057732	-0.003045889	0.042084824	0.03575931	-0.046835532	0.017885856776966778	0.21727112304004098	0.054729681434866714	-0.053530275	-0.071713955	-0.024351934	0.2346613533343525	-0.026280041	-0.002837939	-0.06914987	0.15756254992443738	0.28098419616949216	0.064604928	0.011867249578227134	0.005273599	-0.341840898	0.10683316490651615	0.019235598496899233	0.061411908820039086	-0.10200318	-0.05512004	-0.058929134	0.14647130126396057	-0.054303248	0.2985934852934284	0.061773257	-0.182896139	-0.018429835	-0.093431437	-0.314611222	0.2293180494024672
Claw	0.094625879	0.071756732	0.022259308	-0.185985941	-0.065083101	0.11328321220434612	-0.14146864	-0.340714553	-0.030562943	-0.019077118	0.018243537663109502	0.098040885	0.08580623	0.034824120053164744	0.16088943818933527	-0.204416377	0.067904436	0.08431682	-0.166814926	-0.20224982	-0.100385662	-0.089027383	0.10139192948987202	-0.082701969	-0.115243676	-0.08231102	0.15054069644338153	0.001755321	-0.024122827	-0.014804064	0.1738798858549433	-0.100820287	0.17703541033873324	0.028327680571075747	-0.021588546	0.3365603614339337	-0.142063392	-0.047597498	-0.16585526	0.1281782083375608	0.2273237333950699	0.22473097803792516	0.16471372414683594	-0.026594907	-0.049152549	-0.224898793	0.2739790461078032	0.063113039	-0.06620543	0.17872414633507935
Clear	-0.144680724	0.060477504327828675	-0.02567539	0.094991408	-0.009455388	-0.215798679	0.011240587131416537	0.155999135	-0.0043454	0.11528403326711664	-0.155503167	-0.003905807	-0.092884376	0.11109957943277292	0.004683787	0.1026356917104837	0.16177680122804958	0.10286546682122247	0.040621314	-0.148465605	-0.000414382	-0.079287334	-0.051173148	-0.055705025	-0.145745799	-0.291117901	-0.099373917	0.028761615594722054	-0.200516392	0.002332443	0.28262976962130937	0.15216073414752174	0.24444639091144532	0.058173035	0.1736454850692595	-0.107676359	-0.095833693	-0.407396426	0.17641719336966377	0.22909469314395786	-0.08227488	-0.037770618	-0.112123042	0.056912636	0.1673129027725926	-0.259205087	0.060896406	-0.041149807	0.016865317798202464	0.068266866
Cliff	-0.025856709	-0.014231564	-0.029383828	0.1333095573572371	0.057532487678394466	0.030305475392316702	-0.174613194	-0.052012218	0.12346613171523164	0.005179047	0.090611543	0.2426970772352375	0.142691748	0.012798814	-0.070203651	-0.350826427	-0.023134025	-0.044790122	0.053631532160514715	-0.021144692	-0.044016982	-0.244467611	-0.129140063	0.065486013	0.23574468441383017	-0.013398793	0.045037225	0.130858829	-0.111406891	0.050395755	-0.101734268	0.11881628161467457	0.020800923727527287	0.041003622469669355	-0.107519459	0.097137583	0.2864140124982254	-0.138474718	-0.046678725	0.031820029	0.1080425781110666	-0.076874804	-0.38922365	0.186735983	0.10448422275376303	-0.239459635	-0.083472508	0.21544905171159767	0.19890948881643447	0.12895763845899363
Cliffs	-0.024322805	0.011461353018207906	-0.018082101	0.15582066089373553	-0.120962179	-0.111288608	0.13952854361227843	-0.00612674	0.19037947210559503	-0.092742232	-0.007565413	-0.127394019	0.001016856	-0.204201416	-0.06734682	-0.198360339	0.095837408	0.098967814	-0.238965764	0.1842223271177688	0.34491681759109455	0.00635392	-0.088543986	0.3900669572184592	-0.182162113	0.002776895	0.024807546806804855	0.1857776993213746	0.049683379	-0.068866091	-0.131367622	-0.047208849	-0.13906626	0.006605132	-0.077920867	-0.20634085	0.1733475890168676	-0.068733316	-0.175141772	-0.023238189	0.009442765	-0.24120369	0.045803701874150456	-0.144622435	0.23630937661484766	0.072363938	-0.055229998	-0.102914767	-0.01449704	0.084632238
Cloak	-0.00406768	-0.034648471	0.00931319	-0.096347869	-0.054759743	-0.332795703	0.15536153034341557	0.047674263	-0.123407668	0.3029500110741617	0.013883793134570168	-0.165320442	0.13669554407054163	0.063510028	0.062956659	-0.067930842	0.071878217	-0.041764479	0.088702463	-0.303940755	-0.069226075	0.27477605409683314	-0.122388378	-0.096344577	-0.071473846	-0.193826698	-0.352339159	-0.036790891	0.021676860875386547	-0.008377373	-0.023115897	0.006867326	0.16319804405364854	-0.030386376	-0.091596945	-0.044854585	0.092436864	0.22529397872385765	-0.100222598	0.015785242	0.05398615	-0.158369399	0.003257633	-0.233853548	-0.282258353	0.058515711	-0.061248599	0.032274568	-0.002855208	-0.155788148
clothing	-0.006106318	-0.166386575	0.1876886563542339	-0.182965715	-0.026417976	-0.140637269	0.076968879	-0.044721168	-0.069985474	0.11512540178740299	0.00397117	0.069712602	-0.132413664	-0.189556754	0.014465936889428923	-0.043023029	0.084526972	-0.010782321	0.027671516727795126	-0.219048556	0.2548132533094841	-0.022161733	0.094127795	-0.112816708	0.041560829	-0.175797299	0.060999059151566074	-0.0480328	0.003938775	0.094180022	-0.166310879	-0.09236081	0.061708329	0.2831201979147322	-0.018631922	0.079764018	-0.014434026	0.26207383913330984	-0.235758594	0.012767541090710781	-0.219340215	-0.338220273	0.040137572	0.018822915	-0.038434022	-0.014329132	0.4180641365148768	-0.034836454	0.068832824	-0.087621015
Cloudy	0.035803826	-0.028891382	-0.049784927	0.220583811	0.14276109455136365	0.016583715957546197	-0.279439365	-0.043780777	0.32780504828496443	-0.027973099	0.13379082560538558	0.1748691004563405	0.026554474676853877	-0.10209048	-0.295338341	0.082970724	-0.098808142	0.021362345004118384	-0.151569826	-0.032166229	0.004089221	0.032573228	-0.135198155	0.14515332973967351	-0.072387395	-0.203068422	-0.013221629	0.004168807	0.019475209	0.16519027931510438	-0.028674929	-0.014506666	-0.1337868	0.099511224	0.022351767	-0.050938145	-0.230986168	0.17516862039386383	-0.14888479	-0.07170623	0.043457618	-0.145110518	-0.181122846	-0.257578113	0.087437673	-0.06611653	0.3549996776364903	-0.120588711	-0.111747398	-0.068567066
Coat	0.031049986111366997	-0.060048236	0.078199082	-0.124972542	-0.176438869	-0.229644526	-0.283965883	-0.066161016	-0.038437279	-0.080638899	0.15879156639132208	0.1568279969424874	-0.04275667	-0.2290962	-0.072372183	-0.076601363	-0.083920704	-0.089103556	-0.083451756	-0.049364052	-0.081163018	0.026604232933496754	0.046021591	-0.11629571	0.1623238805536729	-0.125160771	-0.206604388	0.048628007	-0.104388703	0.041031154933611605	-0.306965194	0.17782630624627616	0.085856543	-0.191621289	-0.188850121	0.21355998414609006	-0.094168541	-0.106531206	-0.28939061	-0.044796816	-0.029081378	0.091373444	-0.178672044	-0.194151195	0.057591064	0.12856643044855462	-0.20064708	0.1381168691880927	0.004794354	0.13943113372823956
Cold	-0.008401082	-0.301762398	-0.018181201	0.12683437412602336	-0.106926735	-0.046415678	-0.021072408	-0.34689447	0.1999580811057779	-0.107839539	0.060505599	-0.010372823	0.1504600820124767	0.048580082	-0.028106067	-0.106899107	0.09545393	-0.22413634	0.077273579	-0.131488437	0.14982176162814184	0.019297689785220045	0.077062219	0.009809046	-0.209652359	-0.102976637	0.080443879	0.019938508263708566	0.14129225945620827	0.0482473	-0.11565509	-0.095240188	0.012312916968245744	-0.276849542	0.20020864194188945	0.052850066041873804	0.14680099285277148	-0.189101618	0.14889832906874695	0.2669739357607569	-0.158028351	0.092289614	0.000132792	-0.18477427	0.058968065450716915	0.099731318	-0.071918082	0.13948889719048244	-0.199409636	-0.178830888
color	0.019912939635949402	0.003700623	-0.104460883	0.11802132144337989	0.077392884	0.12509807705415593	-0.017950623	0.087843143	-0.064966155	0.29940225	-0.118451562	0.3069067345525202	0.005085907	-0.200519675	0.19943631725956248	0.018353694	0.12407544609981637	0.17841166681105283	0.049266595	-0.086335879	0.1422378626457203	0.000110137	0.099983205	-0.313967237	0.065160246	-0.093091972	0.2410167109172933	0.09083263	0.034966061	0.070893457	-0.145551036	0.23663564266958634	0.29029864562085617	0.057278274	0.2318463695541579	-0.082969472	-0.116201881	0.005965941	0.063404976	-0.057434719	0.078394946	0.044664946	-0.14553149	0.075628778	0.12588370146556746	0.024996510042363085	0.16803111071637156	-0.177471087	0.068217029	-0.170601562
Compassion	-0.151695839	-0.08590897	-0.128273046	-0.074616351	-0.029159191	0.1139888491709705	-0.043729741	-0.215902384	0.15523421772282994	-0.113980087	-0.007995506	0.060801421	0.027179406247919563	0.1489859630985894	0.065222152	-0.117277861	0.29663795525837505	0.026460884105643397	-0.020062179	0.13125026677244744	0.033965805255116534	0.054359814	0.33934141256019906	-0.037461156	-0.043267042	0.015873593989323313	0.14590003441358776	-0.205133083	-0.267634538	-0.079942944	-0.222478647	-0.057845998	0.068421496	-0.121286381	-0.194279935	0.009441105	0.11744587262748328	-0.230791419	0.1116846993741531	0.11128626210043151	0.12991038641218197	0.1659110232323835	0.29983119869591474	-0.048486299	0.014919514	-0.056703199	0.000269172	0.2087195046872873	-0.183140216	-0.117242472
complex	0.20136645544949083	0.1491460783252525	-0.053095807	0.12492759515776336	0.049891356	0.21936477060318293	0.010894525481858333	0.14996424790041119	0.38630550247198714	0.087451913	0.007212587	0.10563360616460107	-0.053410057	0.3491600702881035	0.026329341068272435	-0.039907331	-0.122191448	0.16043159978105598	0.12679703218572524	-0.072721372	0.084286647	-0.220575641	0.027045734	0.066200409	0.2496396391506805	-0.11270636	-0.186916135	-0.130926264	-0.195428251	0.19544124315688052	0.22643648146937279	0.046820919	0.17857336516375905	0.019586913789019438	-0.013906884	-0.048695566	-0.045384257	-0.22631399	0.038638383	-0.00589748	0.10898397084973786	0.013674670103178226	-0.023789951	-0.127382719	0.010549987414785595	0.10794239922286769	-0.167174925	0.012790098	0.034074704	-0.104992856
Conference	-0.093995054	0.036873431	-0.18122791	0.055950916	-0.143162337	0.16994457555645476	0.37380605300460834	-0.137630372	0.085416957	-0.116202113	0.16644296049339383	-0.202307998	0.076843232	-0.139586229	-0.03309572	-0.164855383	0.13148940691563457	-0.133828646	0.088256109	-0.05501942	-0.018303515	0.023625373	-0.121811658	0.033636567	0.24469224664062458	-0.124413161	0.18736612455388849	0.2395377351878423	-0.130498783	-0.232655387	0.048281920033495906	-0.087527512	0.2987795809015052	0.005565538	-0.128267361	-0.183424621	0.1742699271627574	-0.091329238	0.007007989	0.15282770610720217	-0.0774303	-0.007343772	-0.002649199	0.10925990551485508	0.094456834	-0.035194999	0.010177141794298062	-0.05944546	-0.236262258	0.041188988
Confidence	0.26325520153209087	-0.122949304	-0.107549402	-0.121141852	0.10081037169946769	0.062396492	-0.022056894	-0.127721354	0.012852117530281155	-0.21768138	0.019954526039423093	0.12125268307832562	-0.17407574	-0.213214863	0.21974265457243639	-0.08511236	0.15804115909596095	-0.021425253	-0.022532308	0.060995099	-0.12298822	0.018433947	-0.053075526	-0.183716458	0.046952911	-0.036633258	-0.021846413	-0.168366214	0.22140695948765443	0.12197472507834346	0.13414023718415177	-0.042495644	-0.240576246	0.27170378274792395	-0.008500321	-0.104178364	0.057988405	0.1623781609337675	-0.003206958	0.17788448849476923	0.1506746689077528	-0.149753821	-0.093742481	0.13321939356859952	-0.37739799	-0.020793341	-0.199067433	-0.066301561	-0.04157398	-0.049841511
Construction	-0.077762762	-0.154486523	0.3227192738038609	0.26295345311330104	-0.163628079	0.22277457964693662	-0.056247908	0.018190620283496106	-0.008909475	-0.092897838	0.13853420874339656	0.017725821377796155	-0.067102218	-0.183696535	-0.125825261	-0.231119331	0.001721173	-0.168500001	-0.037393025	0.19292120146003972	0.16887088642998205	-0.004544843	-0.01226222	0.26470123787715644	0.07332659	-0.046157748	-0.200794655	0.055460471256966584	0.11677536103206941	-0.088941542	0.041003656	-0.051194002	-0.025913221	-0.350305066	-0.03122858	0.1364948817390804	-0.088906485	0.007396129	-0.106443852	0.050753045	-0.030488183	-0.132252654	0.18763380946596642	0.13080099092858588	-0.085175667	0.07009254	0.07567187	0.090441105	-0.23856466	0.14173818010815908
Contentment	-0.089477318	-0.056200706	0.4143075568961849	0.047412444758508476	-0.060676079	-0.34636508	0.21827732896059743	-0.211279574	-0.157600817	-0.052042424	0.22246262876472234	0.12144561426812932	-0.02479007	0.048420567596421986	-0.094296998	0.021934106366133837	0.011518320536436156	0.15215567882465206	0.15190567380352935	0.077584434	-0.056910561	0.11651112949871895	-0.014444632	-0.169926229	-0.063340663	0.013275867317964811	0.14295912895086021	-0.028825063	-0.189917597	0.008911889	0.017819485172400285	0.029187788	0.14447566503196213	0.16003279824983987	-0.093327176	-0.096771923	-0.163374339	0.10975647897279794	0.2275527016907222	-0.049486988	-0.037919254	0.23037389645159911	0.079403271	0.068515486	-0.187046181	0.10660150628021134	-0.145930805	-0.178110005	-0.054464187	-0.092005016
Convention	-0.035204027	-0.228918892	0.1523205859067252	0.17914780541492362	-0.309360974	0.15544089648746773	-0.128763137	0.13614183970425575	-0.010873626	0.004571377	-0.029405197	0.19256267268095556	-0.196924866	0.096563435	0.17496078744295182	0.11380004703754479	0.3693090097632896	-0.084030153	0.15208046680597073	-0.016853893	0.19594278376750576	-0.001221498	-0.061619171	0.20748675422837307	-0.078091082	-0.224430075	-0.082107928	0.098341528	0.22114367143771674	0.017654363	0.20941294830636403	-0.215763956	-0.070418234	-0.045843954	-0.018199272	0.013359500045350386	0.10976029624179483	-0.070663419	0.022086536192276133	-0.007168365	-0.147089794	-0.018057449	-0.022822207	-0.02622522	0.005045408	0.012021737600950965	-0.068675777	0.20218748123383234	-0.185787385	-0.114535588
Convertible	0.32665304827752234	-0.121966718	-0.15906974	0.086302952	-0.244067054	-0.027645304	0.252140081	-0.18153404	-0.232886048	-0.17615774	0.105559616	0.13216422726307325	-0.060230534	0.080279257	0.16335866291872628	0.2100179115705046	-0.028945044	-0.270428989	-0.096455436	-0.050150617	-0.030425991	-0.022073974	0.13147306242806947	0.14974869698350707	-0.020172107	0.12907486634804521	0.042026152660102095	0.007579622	0.10652132630003555	0.008489806	0.2417982335888597	-0.169017101	-0.060533938	-0.014866304	0.051636848648317905	0.1489886970457599	-0.002866896	-0.16711573	0.098997602	0.088709644	-0.228173507	-0.000446996	-0.186845854	-0.078098255	-0.106082427	0.095090734	0.013727853196207417	-0.151060329	0.10341006874347179	-0.168475961
Cookies	0.047359609	-0.116781632	-0.052461679	0.072344949	0.074809476	0.19180759612449072	-0.011800486	0.043964819	-0.062799765	0.026109087035210296	0.063050645	-0.014103973	-0.258774157	0.047554305531808665	0.052301629	-0.097580746	-0.184263941	0.21173626049217079	0.070504983	-0.032864995	-0.163123851	-0.117901251	0.18687547654179604	0.019749601152331004	-0.078989697	0.073122309	-0.116837227	0.21531769095646652	0.19407884876822873	-0.066936815	-0.090191861	-0.375609163	-0.212554241	-0.192166358	0.019395014317775353	-0.046802954	-0.193007879	-0.040337058	0.07249794	0.075726207	-0.272535242	-0.018401256	-0.198460289	0.1293660542909376	0.11249717147933953	-0.128835025	-0.10990029	-0.066175446	-0.323195872	0.048199505
Cool	-0.039238876	0.1395247980554732	-0.157966667	-0.089038572	-0.216659484	-0.144431083	-0.169985606	0.14323499841060622	-0.100419857	0.017858206883168897	-0.054759123	-0.182566928	-0.024203964	0.08615947	-0.173692757	0.1163617791874177	-0.122201799	-0.06945987	0.076319684	-0.095411434	0.005403792	-0.045256959	0.018604935680696443	-0.342383709	-0.263133934	0.088584704	0.14916124807807934	-0.130940771	-0.035094703	0.042384766	0.099694424	-0.29160846	-0.127425027	-0.047829584	0.10112143239587207	0.3593093813275681	-0.032790425	-0.202343113	0.057851797313861475	0.18997774121343322	0.015533947106655562	-0.13038879	0.13777297894477444	0.095427176	-0.147564831	0.054854359	0.14342079	0.16997238176364943	-0.009556296	-0.051496852
Coral	0.17055532356456696	-0.168177071	0.06094975	-0.190393807	0.1480562785288655	-0.035860812	0.17629612913727832	0.068292063	-0.169991992	0.19798177018999508	0.2155779204146227	0.12261213065452507	-0.105838536	-0.042527029	0.020210148	-0.097795254	0.23518689314203903	0.020057176842916996	-0.375686658	0.047160576	-0.04838374	-0.010412609	-0.051227358	0.11215595105137324	0.15560399637516129	0.039336147163254655	-0.047154374	-0.005744668	0.002723776	-0.111514409	0.080454224	0.063932487	0.2140764753189014	0.17445706419511003	-0.095288847	0.11399758730827149	-0.132154829	0.096714297	-0.07179433	-0.142202401	0.038918148	-0.371686949	-0.243334617	-0.024666203	0.011457004892188639	-0.051324555	-0.219495653	-0.113663149	0.054366705	0.080850725
Coupe	-0.002229811	0.1590027925782397	0.054620843	-0.102735188	-0.038554035	-0.19281909	-0.014863329	0.15285437457200993	0.094190746	0.19270132122356134	-0.041630527	0.18501674996463302	-0.026568996	0.20226426776312392	-0.003004134	0.0972065	0.2027490804095539	-0.026585957	0.030016809205494505	0.17714980943593717	-0.018280824	-0.181552065	0.2945488900647636	-0.064567497	0.021820469	0.1588891089582749	-0.083635377	-0.13852795	0.034875312	-0.246452134	-0.039571692	0.033679714885976014	-0.037103952	-0.212141981	0.21911423322708437	0.014230960304044056	0.19670689692722815	-0.035741081	-0.120954596	0.036997984	-0.029659192	-0.161879229	0.20201675077750653	-0.085528885	-0.252938235	0.18255181949954183	-0.069314014	-0.083543287	-0.242646403	0.23928637166533664
Courage	-0.172600268	0.007823612	0.12215655986018163	0.056447888018801205	-0.007984882	-0.227772319	-0.108383736	0.025137554653608004	-0.105365259	0.027220183	0.091253096	0.12883346829001566	-0.164127237	0.29402668193900305	0.10272906944862079	-0.000229444	0.14583725295527997	0.3166158685681137	-0.192576358	-0.03015198	-0.318359149	0.025786899	0.048908952	-0.005241949	-0.087610989	-0.27433275	0.049998437	0.19481362102704722	-0.079109329	0.058903144861099696	-0.209900119	0.061199136	-0.052655225	-0.102051589	-0.101776614	-0.052685915	0.051189676	-0.175636394	-0.053154901	-0.005551103	-0.147109206	0.2404882236746312	-0.114242549	-0.08960584	-0.130949016	0.24073115072680934	0.074007776	-0.125365231	0.14807191808191594	0.026864032563413864
